svm_type c_svc
kernel_type rbf
gamma 0.0178571
nr_class 62
total_sv 4025
rho 0.598317 0.647198 0.398613 0.596272 0.636561 0.408027 0.369577 0.176549 0.23723 0.382234 0.413574 0.477133 0.532304 0.444063 0.180188 0.648979 0.5295 0.649742 0.0491187 0.540691 0.272486 0.574885 0.268968 0.311948 0.213415 0.256673 0.401786 0.325394 0.587786 0.229578 0.325466 0.21602 0.231377 0.618389 0.360071 0.210262 0.151318 0.544814 0.424551 0.401116 0.340755 0.73927 0.510123 0.337915 0.261671 0.473124 0.220535 0.443402 0.577986 0.292629 0.402298 0.345493 0.458676 0.490099 0.197432 0.315086 0.514285 0.0714795 0.513066 0.371211 0.518922 0.106643 -0.363721 -0.010007 0.0997107 -0.249366 -0.300665 -0.523695 -0.475015 -0.281996 -0.291859 -0.247916 -0.0892298 -0.255435 -0.506802 0.0710802 -0.0822938 -0.0248837 -0.574035 -0.0724246 -0.394296 -0.0636911 -0.452076 -0.428234 -0.462909 -0.507269 -0.286648 -0.452234 0.00127858 -0.470198 -0.396802 -0.445779 -0.437377 0.0633647 -0.292165 -0.511662 -0.505286 -0.132353 -0.227794 -0.279602 -0.327956 0.28025 -0.103597 -0.339365 -0.47551 -0.156813 -0.506212 -0.192643 -0.0309846 -0.463916 -0.282893 -0.353501 -0.196262 -0.168626 -0.480667 -0.388894 -0.158295 -0.571226 -0.143372 -0.295318 -0.138109 -0.404293 -0.110789 -0.019107 -0.337264 -0.379319 -0.555016 -0.534028 -0.370249 -0.377495 -0.322652 -0.200337 -0.353585 -0.538505 -0.0371603 -0.189384 -0.126362 -0.637106 -0.17818 -0.463957 -0.168628 -0.493837 -0.506632 -0.542966 -0.571675 -0.368991 -0.516697 -0.107279 -0.543045 -0.482218 -0.514468 -0.515742 -0.0476197 -0.385428 -0.548657 -0.57652 -0.229801 -0.325496 -0.36103 -0.405782 0.175551 -0.208334 -0.418402 -0.536132 -0.25958 -0.570168 -0.293336 -0.137407 -0.541604 -0.380432 -0.441075 -0.282409 -0.27469 -0.524852 -0.446252 -0.264991 -0.630676 -0.245417 -0.375654 -0.2448 0.309448 0.413376 0.0789579 0.0294358 -0.29265 -0.145185 0.0313279 0.0312835 0.117166 0.235299 0.0527159 -0.185773 0.375595 0.229201 0.332146 -0.33339 0.237521 -0.0848062 0.261524 -0.107043 -0.140889 -0.174839 -0.269691 0.0537503 -0.157289 0.310982 -0.189478 -0.10596 -0.144858 -0.157161 0.365037 0.0205229 -0.179656 -0.245014 0.214676 0.0987704 0.0653916 -0.00909173 0.537819 0.203389 -0.00477047 -0.179612 0.154813 -0.223407 0.119203 0.275878 -0.174799 0.0281603 -0.045535 0.138575 0.144591 -0.164822 -0.037515 0.166315 -0.322193 0.183286 0.0328094 0.178187 0.10001 -0.232275 -0.278072 -0.47701 -0.450157 -0.268456 -0.281612 -0.212662 -0.0859239 -0.24967 -0.458987 0.0776302 -0.0763011 -0.0136382 -0.566469 -0.0670002 -0.377178 -0.0564845 -0.407321 -0.419309 -0.456169 -0.496145 -0.266985 -0.44021 0.00602877 -0.462153 -0.392343 -0.428609 -0.428282 0.0711952 -0.285529 -0.472316 -0.502096 -0.127201 -0.216368 -0.251728 -0.308985 0.281258 -0.0983026 -0.319469 -0.455099 -0.149807 -0.491819 -0.185187 -0.0256636 -0.455432 -0.277332 -0.345037 -0.174192 -0.167232 -0.444319 -0.355873 -0.15159 -0.559939 -0.137222 -0.274402 -0.134715 -0.321285 -0.367007 -0.559081 -0.521818 -0.35481 -0.36522 -0.315747 -0.187332 -0.336125 -0.530939 -0.0174743 -0.170002 -0.109203 -0.625262 -0.158645 -0.460877 -0.151493 -0.488455 -0.491635 -0.528015 -0.558503 -0.356508 -0.503692 -0.0887226 -0.530445 -0.466279 -0.507674 -0.502163 -0.0292698 -0.372357 -0.556328 -0.562698 -0.222648 -0.316212 -0.355569 -0.396456 0.188201 -0.188871 -0.404337 -0.522421 -0.241054 -0.556171 -0.275116 -0.118021 -0.52666 -0.363371 -0.424675 -0.27293 -0.25378 -0.524906 -0.436838 -0.246383 -0.618299 -0.228152 -0.365403 -0.225167 0.0644782 -0.286456 -0.250009 -0.046642 -0.0448345 0.0269143 0.151692 -0.0280638 -0.272639 0.306419 0.155906 0.217937 -0.391294 0.163342 -0.160925 0.175229 -0.208683 -0.207147 -0.247626 -0.291068 -0.0207717 -0.20863 0.241655 -0.244098 -0.180644 -0.228614 -0.222686 0.296075 -0.0617089 -0.254526 -0.304243 0.11941 0.0169426 -0.0207275 -0.0997583 0.484004 0.130637 -0.0364613 -0.25011 0.0801115 -0.283657 0.0435963 0.205102 -0.245839 -0.0501326 -0.123044 0.0576214 0.0641733 -0.247951 -0.00283082 0.0826829 -0.377821 0.0924798 -0.0471301 0.0979589 -0.246863 -0.21711 0.00411461 0.00745122 0.0773945 0.197112 0.0222972 -0.25041 0.353373 0.200822 0.264841 -0.347344 0.208278 -0.116757 0.220081 -0.1884 -0.159135 -0.196886 -0.244403 -0.00415504 -0.157721 0.291325 -0.194228 -0.130838 -0.186006 -0.173206 0.340441 -0.0101561 -0.215742 -0.257123 0.166569 0.0700392 -0.00507914 -0.0454054 0.523721 0.175943 -0.0570364 -0.205415 0.126221 -0.239488 0.0911917 0.248978 -0.195944 0.000104171 -0.0714123 0.108202 0.110687 -0.23342 -0.147942 0.129199 -0.334013 0.138988 0.00423962 0.144142 0.0870851 0.242146 0.25646 0.350151 0.417044 0.275732 0.0313796 0.538376 0.41122 0.519109 -0.126323 0.425961 0.133394 0.450611 0.142531 0.0870241 0.0500514 -0.0189054 0.287086 0.102498 0.485796 0.0505123 0.114745 0.071832 0.0591868 0.522217 0.228984 0.061185 -0.0256322 0.423193 0.321368 0.293577 0.231579 0.660732 0.390799 0.210476 0.0720216 0.348628 0.0133401 0.316469 0.451723 0.0498351 0.243658 0.175263 0.33899 0.337757 0.0506156 0.185545 0.381839 -0.10974 0.395587 0.239514 0.368578 0.179819 0.182448 0.261244 0.371494 0.193443 -0.0363971 0.52927 0.375172 0.450969 -0.205602 0.382503 0.0521153 0.400388 0.0861522 -0.0117134 -0.0315496 -0.0916117 0.220698 0.00952202 0.46701 -0.0406923 0.0344467 -0.00644245 -0.0164177 0.500605 0.167624 -0.012285 -0.103572 0.348443 0.259906 0.249111 0.14039 0.659896 0.350091 0.174133 -0.0444656 0.302225 -0.110901 0.2667 0.420702 -0.0370097 0.169595 0.0953835 0.303806 0.293302 -0.0401565 0.127743 0.309748 -0.19867 0.319786 0.190462 0.328784 -0.00606677 0.0746595 0.191463 0.0183317 -0.20699 0.553994 0.214577 0.264413 -0.361593 0.202146 -0.116942 0.222356 -0.12731 -0.164369 -0.221581 -0.264525 0.019408 -0.281422 0.339664 -0.20079 -0.133876 -0.17659 -0.180187 0.329236 -0.0141647 -0.201864 -0.268918 0.151305 0.0622976 0.0322993 -0.0426849 0.555072 0.170701 -0.0367901 -0.205884 0.113599 -0.252359 0.0865461 0.246588 -0.22729 -0.00343861 -0.0821684 0.114881 0.105315 -0.197066 -0.0699286 0.130984 -0.344142 0.138943 -0.00604083 0.141428 0.113183 0.200181 0.0202744 -0.207932 0.364193 0.211845 0.330293 -0.358908 0.20821 -0.128401 0.261531 -0.129588 -0.167126 -0.206978 -0.296293 0.0162904 -0.152955 0.292482 -0.220385 -0.140236 -0.181481 -0.189262 0.337668 -0.0168134 -0.210365 -0.286941 0.167323 0.0623637 0.029473 -0.046095 0.520413 0.174986 -0.0399118 -0.206392 0.139166 -0.240232 0.0957096 0.2559 -0.208959 -0.00330735 -0.0735985 0.104817 0.116032 -0.194266 -0.0727096 0.155536 -0.342602 0.167173 -0.00434034 0.149949 0.125741 -0.0535982 -0.285439 0.321218 0.138519 0.260404 -0.426331 0.133772 -0.194751 0.174751 -0.211745 -0.241961 -0.28704 -0.375033 -0.0577246 -0.317728 0.239411 -0.293632 -0.211678 -0.255057 -0.256982 0.276268 -0.0895708 -0.302902 -0.352131 0.0794606 -0.0096545 -0.04169 -0.115868 0.489048 0.0999304 -0.117061 -0.285463 0.0583609 -0.329331 0.0198716 0.182745 -0.299748 -0.0785302 -0.160458 0.0321883 0.0360997 -0.271372 -0.155102 0.0579758 -0.420147 0.0770452 -0.0779348 0.0690807 -0.173261 -0.385675 0.157402 0.0044132 0.0670543 -0.508934 0.0113841 -0.296348 0.0230671 -0.324222 -0.345214 -0.385945 -0.427166 -0.182722 -0.363507 0.0851557 -0.390222 -0.320981 -0.355147 -0.359394 0.150629 -0.207381 -0.387619 -0.437033 -0.0498894 -0.132625 -0.168364 -0.231539 0.3601 -0.0201579 -0.239954 -0.387904 -0.0703995 -0.420796 -0.105164 0.0528461 -0.385028 -0.19859 -0.265963 -0.0932761 -0.0888683 -0.364649 -0.270197 -0.0689968 -0.497656 -0.0572727 -0.194879 -0.0527483 -0.219947 0.322417 0.17747 0.250058 -0.38234 0.19192 -0.130951 0.201898 -0.143646 -0.186832 -0.224103 -0.326387 0.000626062 -0.18455 0.25531 -0.265399 -0.184891 -0.191471 -0.245496 0.311658 -0.0328482 -0.212336 -0.304092 0.14374 0.0433952 0.0131444 -0.0622618 0.494015 0.164813 -0.0556188 -0.223691 0.10409 -0.264154 0.0692239 0.231945 -0.242488 -0.0291162 -0.0956594 0.0815105 0.0891582 -0.203061 -0.0882935 0.101636 -0.382962 0.108765 -0.0176322 0.12238 0.530637 0.38572 0.453696 -0.154829 0.39303 0.0935831 0.405179 0.101403 0.0438015 0.0140346 -0.0381172 0.225009 0.0581757 0.475488 0.0174336 0.0749809 0.034012 0.0269763 0.508648 0.19054 0.0328274 -0.0602168 0.364538 0.27756 0.293017 0.191122 0.657031 0.363248 0.230658 0.0242011 0.318724 -0.0320475 0.285713 0.427964 0.0176026 0.197937 0.134972 0.315015 0.305831 -0.00503159 0.10927 0.325331 -0.138468 0.334712 0.211846 0.337971 -0.180086 -0.103991 -0.631261 -0.141372 -0.456184 -0.139327 -0.478227 -0.49094 -0.537777 -0.577994 -0.339452 -0.611714 -0.16281 -0.532796 -0.456631 -0.502692 -0.494194 -0.00843061 -0.363181 -0.541389 -0.564936 -0.199521 -0.291871 -0.334861 -0.378501 0.24433 -0.171837 -0.393781 -0.532258 -0.273047 -0.578776 -0.302574 -0.103291 -0.554797 -0.358669 -0.445836 -0.30994 -0.243201 -0.529299 -0.4219 -0.236102 -0.636241 -0.218294 -0.41215 -0.218389 0.06445 -0.520902 0.00711422 -0.301701 0.0172122 -0.323877 -0.352139 -0.404392 -0.442132 -0.184439 -0.397345 0.088144 -0.393995 -0.323628 -0.359672 -0.365445 0.143933 -0.214795 -0.388823 -0.442881 -0.0439294 -0.136338 -0.171842 -0.234804 0.360132 -0.0245068 -0.243765 -0.386313 -0.0891608 -0.428771 -0.12984 0.0504736 -0.402418 -0.209313 -0.278169 -0.104385 -0.0901374 -0.369359 -0.27187 -0.0751184 -0.511626 -0.0630238 -0.211246 -0.059121 -0.575899 -0.053162 -0.400943 -0.0493918 -0.392665 -0.436427 -0.463603 -0.580451 -0.253667 -0.465439 0.0286796 -0.514614 -0.393361 -0.432019 -0.440505 0.0809521 -0.286567 -0.48917 -0.522053 -0.112207 -0.205005 -0.242107 -0.295617 0.299198 -0.0845031 -0.307307 -0.455758 -0.141898 -0.521771 -0.177984 -0.011674 -0.500392 -0.285316 -0.363687 -0.177145 -0.1633 -0.445159 -0.337533 -0.159776 -0.592115 -0.127039 -0.274066 -0.130044 0.544898 0.24395 0.541897 0.23984 0.212123 0.196663 0.122427 0.376968 0.227636 0.573615 0.18405 0.250443 0.188098 0.19317 0.608732 0.341578 0.180237 0.0995352 0.495904 0.409848 0.385085 0.313242 0.731574 0.494706 0.317868 0.194455 0.458064 0.15136 0.429098 0.559708 0.184301 0.378336 0.299989 0.440722 0.449213 0.168998 0.290215 0.502535 0.010949 0.485255 0.35256 0.483029 -0.30442 0.0113011 -0.331204 -0.374153 -0.407182 -0.443704 -0.192252 -0.367736 0.0730778 -0.424716 -0.371507 -0.364011 -0.422188 0.1329 -0.21871 -0.391952 -0.450194 -0.0433339 -0.145186 -0.180244 -0.243157 0.338396 -0.0312105 -0.25101 -0.39996 -0.0818743 -0.439367 -0.116477 0.0415884 -0.408533 -0.227022 -0.280133 -0.104236 -0.0950137 -0.371807 -0.279379 -0.0878434 -0.524825 -0.0707462 -0.204939 -0.0631875 0.351051 -0.00596798 -0.0499951 -0.0814721 -0.141151 0.136807 -0.0427399 0.429976 -0.0844069 -0.0170107 -0.051482 -0.0638347 0.427884 0.118496 -0.14235 -0.150873 0.270307 0.19132 0.151816 0.0897015 0.595191 0.27527 0.0764093 -0.0869982 0.233042 -0.118847 0.198959 0.344433 -0.0820122 0.111961 0.0409598 0.254302 0.218536 -0.0947862 0.0511563 0.239238 -0.222231 0.25905 0.124665 0.249181 -0.34715 -0.383411 -0.424462 -0.515564 -0.209419 -0.409471 0.0677914 -0.459681 -0.346299 -0.397821 -0.40143 0.121908 -0.225539 -0.429768 -0.477707 -0.0607173 -0.157277 -0.19306 -0.255816 0.334523 -0.0429668 -0.263206 -0.409289 -0.095522 -0.451329 -0.133619 0.0326607 -0.441361 -0.236482 -0.304089 -0.130403 -0.113797 -0.394695 -0.291794 -0.101404 -0.531064 -0.0651518 -0.226848 -0.0773666 -0.0401327 -0.0717942 -0.127554 0.168187 -0.0328908 0.420531 -0.0758624 -0.00632199 -0.0546617 -0.0526241 0.45866 0.112651 -0.0795321 -0.139204 0.303165 0.210668 0.208662 0.0682565 0.624304 0.298535 0.149824 -0.0917565 0.249821 -0.115346 0.214239 0.370262 -0.0703623 0.12087 0.0440389 0.247293 0.236683 -0.125685 0.0887093 0.256101 -0.225107 0.265979 0.135314 0.270946 -0.05928 -0.161355 0.189522 -0.00511381 0.422186 -0.0752233 0.045276 -0.00650555 -0.0342983 0.468305 0.150094 -0.0200266 -0.115746 0.328911 0.225603 0.196392 0.12146 0.629188 0.326598 0.12697 0.0340105 0.279387 -0.167329 0.246332 0.407054 -0.159438 0.171667 0.101237 0.261929 0.274599 -0.0302754 0.0983722 0.305585 -0.304001 0.305461 0.162788 0.312444 -0.0716004 0.223155 0.017034 0.467635 -0.0112263 0.0676626 0.0214481 0.0104595 0.507665 0.191146 0.0103536 -0.0735242 0.364401 0.266235 0.236511 0.156963 0.660705 0.366917 0.163322 -0.00625061 0.326533 -0.0602416 0.293699 0.470919 -0.0552473 0.224539 0.132649 0.30491 0.313583 0.000527071 0.132305 0.350129 -0.176329 0.34837 0.203205 0.355136 0.274424 0.170136 0.504376 0.0651453 0.146233 0.0781569 0.0731788 0.537574 0.23966 0.068199 -0.044101 0.416238 0.308773 0.280579 0.209218 0.68503 0.406752 0.211306 0.0849161 0.375294 0.0530602 0.337191 0.514022 0.195625 0.30049 0.221143 0.35003 0.375817 0.0549422 0.183383 0.426767 -0.0889866 0.414185 0.250446 0.403706 -0.185209 0.275242 -0.230474 -0.157121 -0.205677 -0.200466 0.326859 -0.0339553 -0.217643 -0.280207 0.152702 0.0516866 0.0227154 -0.0532109 0.515271 0.159106 -0.0915007 -0.240274 0.108741 -0.270323 0.0723123 0.234131 -0.225665 -0.0230613 -0.098784 0.0888165 0.0932657 -0.219694 -0.0836635 0.112281 -0.368104 0.122643 -0.0193282 0.126986 0.468144 -0.0469563 0.0258995 -0.0177589 -0.0318139 0.480722 0.150455 -0.0388203 -0.138582 0.321902 0.227706 0.200563 0.117693 0.66582 0.330979 0.122857 -0.0471851 0.317238 -0.169025 0.27342 0.417532 -0.178902 0.177337 0.0978059 0.28259 0.287694 -0.0458341 0.0925189 0.324524 -0.238544 0.322271 0.172003 0.321519 -0.468408 -0.395493 -0.487019 -0.434503 0.0609448 -0.316746 -0.514234 -0.50366 -0.123273 -0.224118 -0.267623 -0.319768 0.312803 -0.10433 -0.333092 -0.464975 -0.168294 -0.500569 -0.203476 -0.0319506 -0.469307 -0.286658 -0.361342 -0.234379 -0.169808 -0.504007 -0.364837 -0.159891 -0.566631 -0.146788 -0.330826 -0.139569 0.0811695 0.0236811 0.0150998 0.5075 0.191913 0.00969341 -0.0793237 0.378662 0.279951 0.23679 0.165866 0.65722 0.369789 0.160372 0.0269057 0.319339 -0.0183454 0.284327 0.457136 0.0164113 0.287566 0.155212 0.304078 0.314918 -8.01529e-06 0.131513 0.392475 -0.177565 0.448311 0.196528 0.348827 -0.0401292 -0.0587602 0.44559 0.120063 -0.0508159 -0.152062 0.296872 0.196996 0.16693 0.0911952 0.6032 0.345992 0.0965837 -0.0699796 0.254676 -0.107056 0.220768 0.373226 -0.0650444 0.137006 0.0602373 0.233156 0.243637 -0.058972 0.0679422 0.269753 -0.278802 0.276511 0.133811 0.274741 -0.00768394 0.480054 0.157027 -0.0295283 -0.0942807 0.329723 0.26575 0.219826 0.184931 0.634759 0.335529 0.13847 -0.0305669 0.291725 -0.061572 0.258636 0.402444 -0.0208612 0.171415 0.103281 0.298066 0.278205 -0.0120234 0.112776 0.299374 -0.166698 0.314543 0.184709 0.308411 0.480871 0.16644 -0.00202055 -0.0959818 0.337526 0.242795 0.21217 0.137787 0.631611 0.349028 0.140135 -0.0148805 0.297323 -0.0476199 0.263327 0.416626 0.00150608 0.222334 0.112571 0.276221 0.282169 -0.0127227 0.110973 0.373372 -0.167714 0.361935 0.177325 0.314731 -0.343751 -0.512487 -0.544094 -0.180564 -0.282669 -0.318724 -0.370831 0.227826 -0.163606 -0.380637 -0.501176 -0.2156 -0.536184 -0.250121 -0.09223 -0.506293 -0.33929 -0.399616 -0.23826 -0.226294 -0.489356 -0.409195 -0.219305 -0.601225 -0.20158 -0.335188 -0.197491 -0.197679 -0.249848 0.177781 0.101764 0.0499042 -0.0229556 0.523082 0.186746 -0.0231581 -0.187967 0.140836 -0.220214 0.104543 0.260741 -0.190264 0.0136574 -0.0618647 0.129793 0.124144 -0.169923 -0.0543555 0.147611 -0.319775 0.17756 0.0160452 0.157221 -0.0854283 0.36817 0.301229 0.263902 0.18371 0.66432 0.362335 0.162191 -0.0165933 0.318495 -0.0513144 0.283789 0.431064 -0.0165694 0.19105 0.129069 0.384798 0.310615 0.0889501 0.138802 0.32688 -0.159642 0.343376 0.236611 0.344075 0.421047 0.319405 0.291595 0.220083 0.681437 0.417367 0.225062 0.0694438 0.378963 0.0314635 0.346522 0.543914 0.102858 0.295305 0.20572 0.356443 0.394228 0.0744518 0.19705 0.407863 -0.0824413 0.401731 0.262377 0.426046 -0.101913 -0.13769 -0.202785 0.386312 0.0116667 -0.20888 -0.377121 -0.0326499 -0.410025 -0.0677118 0.0860975 -0.36534 -0.169036 -0.236854 -0.0581813 -0.0564111 -0.342035 -0.241512 -0.0347353 -0.486466 -0.0233584 -0.163871 -0.0158601 -0.0311427 -0.115482 0.477068 0.110708 -0.109123 -0.268819 0.0605646 -0.300655 0.0259916 0.186727 -0.264032 -0.0667198 -0.143715 0.0384511 0.0456393 -0.276598 -0.145011 0.0672076 -0.39204 0.0733433 -0.0638486 0.0786519 -0.0870136 0.515246 0.145086 -0.0583919 -0.248653 0.093493 -0.275486 0.0569347 0.222872 -0.234088 -0.0354135 -0.113509 0.0751583 0.0777136 -0.26729 -0.0781421 0.0983719 -0.370024 0.108013 -0.0323833 0.112508 0.541232 0.212438 0.00625721 -0.163792 0.163071 -0.197656 0.129173 0.281582 -0.157 0.0392893 -0.0326326 0.144691 0.148493 -0.189416 -0.0324698 0.167601 -0.298224 0.17492 0.0431243 0.180373 -0.370139 -0.553525 -0.661422 -0.433667 -0.685531 -0.46337 -0.301654 -0.663297 -0.520475 -0.585441 -0.467067 -0.431508 -0.64871 -0.5768 -0.422046 -0.728594 -0.397536 -0.53861 -0.408993 -0.218507 -0.360884 -0.0496531 -0.399265 -0.0844032 0.0730136 -0.36759 -0.179025 -0.244782 -0.0721607 -0.0635193 -0.343425 -0.247009 -0.048209 -0.492967 -0.0375999 -0.173023 -0.031589 -0.172046 0.168008 -0.204475 0.131102 0.291996 -0.161876 0.0325566 -0.0388336 0.150283 0.152041 -0.170698 -0.0689841 0.171295 -0.305789 0.181275 0.0358947 0.1864 0.316396 -0.0698372 0.283914 0.429032 -0.0448056 0.202849 0.0921861 0.304508 0.309473 0.00272174 0.139934 0.338951 -0.223631 0.34113 0.204188 0.343138 -0.354663 -0.0657615 0.127188 -0.325269 -0.134523 -0.200976 -0.0232461 -0.0155871 -0.301178 -0.197224 0.00248649 -0.441827 0.0124787 -0.126273 0.0172131 0.320925 0.481779 -0.00133156 0.247124 0.195943 0.343139 0.361667 0.0409148 0.176715 0.391849 -0.399535 0.378013 0.240235 0.402219 0.162323 -0.290887 -0.0948802 -0.166048 0.0125306 0.0194282 -0.269579 -0.160857 0.0385534 -0.412185 0.0478133 -0.0923003 0.0529878 -0.461596 -0.279675 -0.325231 -0.14636 -0.137216 -0.408404 -0.319231 -0.13451 -0.556438 -0.116509 -0.246366 -0.106746 0.230118 0.183163 0.305745 0.322894 0.00391115 0.131721 0.370548 -0.245739 0.355416 0.202867 0.360221 -0.0788493 0.10572 0.113829 -0.182941 -0.0645135 0.149129 -0.353132 0.159861 0.00446835 0.148011 0.181543 0.18783 -0.125057 0.00803887 0.220491 -0.299103 0.22259 0.0740871 0.225336 0.0069021 -0.364319 -0.185092 0.0257433 -0.426307 0.0363241 -0.183316 0.0427147 -0.290114 -0.182271 0.0176247 -0.438381 0.0273078 -0.110216 0.0971435 0.152127 0.306097 -0.147459 0.319959 0.235468 0.323216 0.200969 -0.27598 0.210766 0.0750827 0.216627 -0.483892 0.0288036 -0.126863 0.0162658 0.473822 0.334565 0.477036 -0.137542 0.00493486 0.148506
label 53 51 35 23 37 17 29 27 15 44 50 9 0 43 7 26 36 22 6 60 1 45 8 48 46 10 57 20 38 24 47 59 41 61 25 13 31 11 39 19 33 21 34 49 28 14 16 52 42 4 56 3 18 12 55 30 32 2 58 5 40 54
nr_sv 33 58 51 51 51 49 39 79 43 61 67 68 57 51 78 74 110 87 105 42 85 46 119 62 91 44 37 54 63 92 49 47 43 29 47 52 45 27 54 46 47 44 107 41 73 60 79 72 71 101 82 80 78 77 46 67 93 96 62 105 82 76
SV
0.09858089357381075 0.09017749658112746 0.203762723309146 0.1275599049362381 0.08714228102824842 0.07456259863505678 0.06640987043491224 0.2312419592568843 0.0492902480938765 0.03184956514930072 0.3437665566193311 0.1972435968171476 0.1023033365038983 0.1009057333932992 0.06297876490810687 0.05067453271907343 0.06605063095944588 0.2177064192462264 0.02937978707202086 0.0843728052284019 0.07422094152968259 0.140625361813476 0.1099129168610165 0 0 0.08468027941930444 0.09982566650575449 0 0.07327334441904598 0.1660917225521636 0.01324075408301666 0.07452389029856166 0.07633210800576901 0.09017918154378791 0.07295847686088579 0.05262289930148139 0.01214747458933561 0.1631593268523242 0.08342871880952875 0.08189278396907476 0.08216074453762559 0.085423321007147 0.07408845968688672 0.07426636816472922 0.05185104806580152 0.05726183720717807 0.0321399925319124 0.06245619729621558 0.06481909560705791 0 0.05202604374683259 0.06173171676532216 0.07160782745194991 0.06575874498395996 0.04975730652784265 0.06375238830011883 0.1012977046561027 0.06215254609066368 0.1070284567355763 0.06183655641843924 0 5:2 6:2 7:2 8:3 9:2 10:4 11:2 12:2 13:1 14:3 15:2 16:3 17:3 18:3 19:1 20:3 21:3 22:1 23:1 24:1 26:3 27:1 35:4 36:4 37:2 38:6 39:3 40:3 41:3 42:3 43:1 44:3 45:1 46:3 47:3 48:1 49:3 50:3 51:2 
0 0 0 0 0 0 0 0 0 0 0 0 0 0 0 0 0 0 0.1083600198839982 0 0 0 0 0 0 0.9493460837109197 0 0 0 0.06730434686776973 0.4231406044557124 0 0 0 0 0 0.2772197712902085 0 0 0 0 0 0 0 0 0 0.13066992804051 0 0 0.2333093555854699 0 0 0 0 0 0 0 0 0 0 0 5:1 6:1 7:2 8:2 9:3 10:2 11:4 12:2 13:1 14:2 15:2 16:3 17:1 18:2 19:2 20:1 21:2 22:2 23:2 24:2 25:2 26:2 27:2 35:2 36:3 37:3 38:4 39:2 40:2 41:3 42:4 43:3 44:2 45:2 46:4 47:2 48:1 49:2 50:4 51:1 52:1 
0.7228491139197177 0.7415787826549165 0.6494785837892648 0.7531931718539606 0.7298887133287777 0.6212976707897374 0.6072690428705709 0.5040221418653443 0.5422771662278265 0.6176475197634277 0.8424529979753411 0.7049757717617221 0.7131408033372304 0.62649208340222 0.5184559321013149 0.7428957966824637 0.6810969394439133 0.8024648942449403 0.3895573334644493 0.6735221382503689 0.6059505438647107 0.8659185206082675 0.5639708794650451 0.4934044527831947 0.5001283147374698 0.6956094051482045 0.6146180382963883 0.6198945679325548 0.7115896428736544 0.5821958946777518 0.6952838636906629 0.5540043627060057 0.5053254927501994 0.7232551988799694 0.6115393450626996 0.5992691341056298 0.8579260802894194 0.7805295747228074 0.6343271666982704 0.615250563949704 0.6011286926195112 0.7770737821327449 0.6707713701663638 0.5875979290140992 0.5086837065214587 0.6572504873427703 0.5040073513760328 0.6416506986939879 0.7169602036062119 0.4758364311113026 0.6270841845978434 0.5629954730883208 0.6644796908185057 0.8419016851633163 0.5470674114352432 0.5822877763822374 0.6586564995173372 0.3374170895982891 0.652417183519317 0.6202592310611524 0.8966199048939002 3:2 4:1 5:3 6:1 7:2 8:4 9:1 10:3 11:3 12:3 13:3 14:2 15:3 16:5 17:3 18:2 19:3 20:2 21:5 22:2 23:2 24:1 25:2 26:1 27:1 35:3 36:4 37:4 38:3 39:2 40:4 41:6 42:2 43:3 44:2 45:4 46:2 47:3 48:5 49:3 50:2 51:4 52:3 53:1 
0.2584427758657084 0.1946100652771453 0.4555747252879773 0.2430576200737727 0.2038133011590375 0.1855026595869475 0.215198278873957 0.4299775096021081 0.2898165983197769 0.1633965960804743 0.2946987156002057 0.2730620606520132 0.2088779982077041 0.2707732102532287 0.2421172812381173 0.2126570913276866 0.1716529014842878 0.2924172156769058 0.1605499272718723 0.1899191423273568 0.2071712522013102 0.2236178014278362 0.2647524589579379 0.3542021690779372 0.1550358789269313 0.6392056188674946 0.2837037688274541 0.1511844384689226 0.1995102652897832 0.4514481281090978 0.3962413932504663 0.1817668816210204 0.3113134440982649 0.1988205837013234 0.1808215840574512 0.235051873970337 0.08757316371733712 0.2759844154206774 0.2168691373934416 0.1938175356522408 0.258980371570918 0.2096708742417787 0.1878900141800312 0.1857945446242458 0.4912748647148737 0.1662537865942037 0.2303510240950602 0.1594048857425653 0.156785881666609 0.0905353997274596 0.1955178847450386 0.3092385100462065 0.18896413892449 0.1645716293509963 0.2106677969300932 0.2016026201725159 0.2515863557990189 0.1420991260210965 0.2595171871757007 0.1760826173784726 0.1163557625421717 4:2 5:4 6:1 7:1 8:1 9:2 10:5 11:2 12:2 13:2 14:2 15:2 16:1 17:2 18:4 19:1 20:2 21:1 22:2 23:2 24:2 25:2 26:2 27:1 35:3 36:4 37:4 38:4 39:3 40:3 41:2 42:4 43:2 44:2 45:3 46:1 47:2 48:3 49:1 50:4 51:2 52:1 
0.316607792808706 0.3493440276891018 0.3079233513384851 0.3436836304912286 0.3478290123522062 0.2997165595961193 0.2906882387997449 0.236951772310902 0.2947486632091454 0.2709428392482213 0.1871894028730205 0.2788821070920642 0.3274762084377357 0.3422502734583097 0.2532587911919715 0.3375094168849879 0.3217929762613598 0.3904893452182891 0.2294753023273154 0.3146121168621932 0.2741386470501718 0.3189474563826755 0.2736362163358478 0.4076058223117633 0.1935024692073238 0.56780886195951 0.3158051710361486 0.2345204691990705 0.3316386427616801 0.3779636545251417 0.3999578947967114 0.2591343450565121 0.2064047354976152 0.3458967165827989 0.2889691449922878 0.2451941948584322 0.1919998159882677 0.3327519383232636 0.298600804921717 0.2900580786406496 0.2833973377826772 0.3705634729697819 0.3207795233867456 0.2862679461896443 0.3303361203570856 0.3009280322476852 0.5054963299002341 0.2995999405058709 0.3174500096977398 0.4284045059140268 0.2533067156998285 0.2400970610346602 0.3051004158575938 0.3730295685364489 0.2527128659207407 0.2780593688403185 0.2973572599051646 0.3964931653895521 0.3021686817799705 0.2902588051026982 0.4020868780197075 1:2 3:1 4:1 5:2 6:1 7:2 8:2 9:2 10:1 11:3 12:4 13:1 14:5 15:1 16:2 17:2 18:1 19:2 20:2 21:3 22:1 23:5 24:3 25:3 27:1 28:1 35:4 36:3 37:3 38:5 39:5 40:2 41:4 42:3 43:4 44:3 45:1 46:3 47:3 48:1 49:2 50:3 51:2 52:2 56:1 
0.2842426855713528 0.3091857810682495 0.2686649289250886 0.2858013408864112 0.304140367002844 0.2602431511239385 0.2472014379512932 0.2292466482909388 0.2017218315648052 0.2451518811371898 0.2065362601407986 0.2392321739283137 0.2742429304266065 0.6122615376052201 0.2129238326922651 0.2884304856351933 0.2873451009853736 0.3210579529814069 0.2436858571883312 0.307616933304425 0.2347512132455581 0.3340311191479111 0.2157201478039653 0.5114152139066198 0.2726304212426083 0.5576414492058032 0.2729110140878263 0.2130190035558806 0.2885733426166182 0.5209958578001384 0.5102769039532732 0.2182242068751379 0.3326201106907489 0.2987542350216538 0.2596834935930531 0.2353775504162633 0.3621646971859457 0.2624656044955912 0.2693777212337027 0.255115580932317 0.2568310437736993 0.3154469694840959 0.3193109594169587 0.2488251883026508 0.215376760613401 0.2694672782619406 0.479002070240909 0.2636636532954071 0.3351648034628236 0.5584810512255461 0.305411272160739 0.2939523582959696 0.2606422737778863 0.3028137021881666 0.2217851339742177 0.2377661316376155 0.4103364071540651 0.4202226779193673 0.3649349015573756 0.2466086758621215 0.3816629153263835 3:1 4:3 5:1 6:4 8:3 9:1 10:2 11:2 12:2 13:3 14:2 15:1 16:3 17:1 18:4 19:3 20:2 21:2 22:2 23:4 24:3 25:2 26:1 27:1 35:2 36:4 37:3 38:4 39:4 40:4 41:5 42:3 43:4 44:1 45:4 46:2 47:2 48:2 49:2 50:1 51:3 52:2 54:1 
0.4462616188438795 0.452570035351915 0.45466530893977 0.4464372305473431 0.4465153515686082 0.3813945590295187 0.3690129776542823 0.433037284499573 0.3256226467163049 0.3757729135856527 0.5123204792594281 0.4603905421507116 0.4760135659407305 0.4678491727991391 0.3386483918711837 0.469682874941061 0.4107443144405646 0.4888749440377244 0.3059020016847415 0.4075791770153396 0.361572958432637 0.5412727140806677 0.3868843700401621 0.4221358938482219 0.3351306502837205 0.6274213398848915 0.4105933557808024 0.3942898885473277 0.4327058779778713 0.3682178811234754 0.2554858027373912 0.3584615203963882 0.3922754917840519 0.4392040781839594 0.3840604184401125 0.3413138528531992 0.4058044411691217 0.5880752295256234 0.3921547724176236 0.3854145301050066 0.3809270151436046 0.4709961951501783 0.3935156670332904 0.3612687023187986 0.4422739090437022 0.3984773715070667 0.2927031264670251 0.3839242306951109 0.4442521208700679 0.469161039191025 0.4179005896193324 0.4216412478140439 0.4013809040920659 0.4836618887277456 0.3243921263453142 0.3609280708397737 0.4451005647190683 0.2796173242347867 0.3914054967076955 0.3725431500284939 0.4238033742081357 3:1 4:3 6:3 7:2 8:3 9:3 10:1 11:4 12:4 13:1 14:2 15:2 16:4 17:2 18:4 19:2 20:1 21:3 22:3 23:1 24:1 25:1 26:2 27:1 35:2 36:5 37:4 38:3 39:6 40:3 41:2 42:2 43:3 44:2 45:3 46:2 47:3 48:3 49:1 50:3 51:3 52:2 53:1 54:1 
0.6008435846883559 0.5778704188705986 0.6327204168446984 0.5719640930960362 0.5930392451640396 0.4969770721085745 0.520202002744797 0.7105376554714957 0.4753719781446451 0.5117314738071654 0.6559715067296996 0.673187326495836 0.5550446576355917 0.6246199266858763 0.5064968065713187 0.6601088610633554 0.5397815821917793 0.8160903764652734 0.4631545334659465 0.5786386036906628 0.4666516003232345 0.6876882742781598 0.5466905488686759 0.5240363818527145 0.4483879217649689 0.7729030041777906 0.5288191972473201 0.575422286933999 0.5624381129339674 0.6869067969861372 0.4914179161418347 0.4581573968083313 0.543232935115279 0.5644798108476613 0.500394830559826 0.4657158441729847 0.4300225232576299 0.5962855920921118 0.5201643801507997 0.5487312768688333 0.4855072816732333 0.6329579188498706 0.5244305330135244 0.4806156655263452 0.6520023036188235 0.5259780880858258 0.429442638183628 0.511131976481853 0.5640123513367469 0.5677536222810504 0.5624736705592894 0.5966827422763408 0.5264512858897316 0.5462322142279973 0.4360846077685274 0.4800476678105836 0.6851381874233864 0.4606469726240029 0.7504059627568483 0.4917007931655223 0.5333450509781811 1:1 2:1 3:1 5:1 6:3 7:4 8:2 9:2 10:2 11:3 12:3 13:2 14:3 15:2 16:3 17:2 18:1 19:1 20:2 21:2 23:2 24:2 25:2 26:2 27:2 35:2 36:5 37:2 38:3 39:4 40:2 41:4 42:2 43:3 44:1 45:2 46:2 47:1 48:4 49:1 50:2 51:1 52:1 56:9 
0 0 0 0 0 0 0 0 0 0 0 0 0 0 0 0 0 0 0 0 0 0 0 0 0 0.1444784825069622 0 0 0 0 0 0 0 0 0 0 0.1061757009202761 0 0 0 0 0 0 0 0 0 0 0 0 0 0 0 0 0 0 0 0 0 0 0 0 5:1 6:2 7:1 8:2 9:2 10:2 11:2 12:1 13:3 14:1 15:3 16:2 17:1 18:3 19:1 20:3 21:2 22:3 23:1 24:2 26:3 27:1 35:1 36:4 37:4 38:2 39:3 40:4 41:4 42:1 43:1 44:4 45:1 46:3 47:2 48:1 49:2 50:2 51:2 55:1 
0.2210581020135024 0.248581242365971 0.2043351337495192 0.2624424447387892 0.2436223306989843 0.2044973249086001 0.1839574388305602 0.148731814240097 0.1201094066093138 0.1971806950926471 0.1788925389470651 0.2728740175377782 0.2260804996240125 0.2487984546866411 0.1289935000277018 0.2285794893347194 0.2320861862147673 0.3109978642873291 0.1520704252645947 0.2322976809084644 0.1750339332969177 0.2870004767469302 0.1430706872836782 0.2316712595264004 0.1657423044607147 0.9823228554645095 0.1726049841482579 0.1787861034963218 0.2314868934302564 0.1137510980458443 0.3277592799504793 0.169788204334185 0.1569194498510277 0.23890060288533 0.1957202959681995 0.16627348861289 0.4100867532287765 0.241771731138271 0.202232163794326 0.1988339489249727 0.172503216201076 0.2605210567067447 0.2325745118510822 0.1904122628039799 0.07356286069076322 0.2208726239803767 0.2167333497990774 0.2161099672882805 0.2619373239701239 0.2060740845908365 0.2286893326110318 0.05904044096324962 0.2134656918163029 0.2560733041336276 0.1633657134949087 0.178174805510835 0.2226823282030597 0.278149198539687 0.2121679496692424 0.2020013030300269 0.2902400282876298 4:1 5:3 6:1 7:1 8:2 9:2 10:5 11:1 12:2 13:2 14:2 15:2 16:2 17:4 18:1 19:2 20:3 21:3 22:3 23:1 24:2 25:2 26:2 27:1 35:3 36:4 37:2 38:5 39:4 40:3 41:3 42:5 43:1 44:3 45:2 46:2 47:3 48:3 49:1 50:4 51:2 
0 0 0 0 0 0 0 0 0 0 0 0 0 0 0 0 0 0 0 0 0 0 0 0 0 0.3509485711090181 0 0 0 0 0 0 0 0 0 0 0 0 0 0 0 0 0 0 0 0 0.3660495044174392 0 0 0.5840071799242712 0 0 0 0 0 0 0 0 0 0 0 5:1 6:3 9:2 10:2 11:2 12:1 13:3 14:1 15:3 16:2 17:1 18:3 19:1 20:3 21:2 22:3 23:1 24:2 26:3 27:1 35:1 36:4 37:4 38:2 39:3 40:4 41:4 42:1 43:1 44:4 45:1 46:3 47:2 48:1 49:1 50:2 51:1 52:1 
0.1998539864360026 0.221118650190123 0.1128768935250371 0.1840507403364293 0.2226474826384469 0.1830022541289362 0.1620638806234632 0.04402856012174799 0.1019197968942229 0.1886495441818323 0.3747760319744926 0.2171003078576133 0.1967165621493566 0.2561734819746762 0.1016605293670161 0.2636579680143891 0.2343187543149138 0.1868856898058477 0.2138706897858657 0.2161543479829132 0.1624708189055266 0.3156815745779057 0.1116120343648139 0.09794850183221468 0.1010568368316301 0.6127535514803375 0.1539519944934461 0.3261765162650779 0.21599255235015 0.06421391079317564 0.2479232997099242 0.1535513713190912 0.2304668677783122 0.2222291387375062 0.1812436134275603 0.1339746954961905 0.2502148916514105 0.1902534810834217 0.189697346990179 0.1736015045624527 0.1612471644925016 0.2457262374765439 0.2083783782246673 0.169027383243252 0.04657928548683302 0.2371866114254536 0 0.2317741462837749 0.1566529120305379 0.4118470206496637 0.254944894102471 0.09374185094865321 0.2064971149255068 0.2687335209882878 0.1385708793385622 0.1554647862245411 0.1715123341795666 0.02242473870487293 0.1701671632848953 0.1899316021991477 0.3363384479773275 4:1 5:3 7:2 9:2 10:3 11:2 12:5 13:3 14:1 15:3 16:3 17:2 18:3 19:2 20:1 21:3 22:1 23:4 24:2 25:1 26:2 27:1 35:2 36:2 37:3 38:4 39:4 40:3 41:2 42:5 43:2 44:2 45:2 46:3 47:4 48:5 49:2 50:2 51:2 52:1 
0.3836581448154252 0.3473106804230531 0.4033085653918094 0.3559146376386321 0.3440357217352749 0.3192203768169098 0.3476098443044274 0.3233712221612167 0.375372607351824 0.2806324367321086 0.2268595505378899 0.4151104797724077 0.3263628884872548 0.2643964307448064 0.3473881933474535 0.3475364155495934 0.311194228373818 0.4054533918397686 0.1585679978128932 0.315845280521619 0.2640197715732929 0.2437278792171838 0.3717166903445679 0.2872995141608164 0.1659845087180585 0.5468466316808102 0.3406598698476218 0.433710309403735 0.327520565251921 0.2176036492925501 0.4406490484387693 0.2506178046471571 0.143078667684706 0.345640570895562 0.27542275338446 0.2545583498192156 0.0701901251983624 0.3283094381307747 0.2908121658801772 0.3119101994933298 0.3043354117262724 0.3714420228541112 0.314976951904562 0.3202847936567743 0.59478683759314 0.3038606061265113 0.7795964692559226 0.2907908452672747 0.3004839370665737 0.6330976996995601 0.1862323333371521 0.324432329008386 0.2996254185651733 0.2733942830128882 0.2447034374541943 0.3345868259578846 0.2899027167749011 0.5289148699485496 0.2647540408312782 0.2868648862050772 0.2468378466905619 7:1 8:2 9:1 10:3 11:2 12:3 13:1 15:4 16:1 17:2 18:1 19:3 20:1 21:2 22:1 23:3 24:1 25:1 26:1 35:2 36:4 37:1 38:4 39:2 40:1 41:2 42:2 43:1 44:1 45:2 46:2 47:3 48:2 49:3 50:2 
0.9422896876812414 0.9435273157522227 1 1 0.9313167528032165 0.798921719729348 0.7977400051966009 0.8666119819756262 0.7594321502300794 0.8235669798526031 0.870325931564399 1 0.888337644052803 0.800735612697733 0.7058259001320409 0.9586098430121185 0.8727127044918442 1 0.6024072341252394 0.8669755501600992 0.8353463774718167 1 0.7765900132395468 0.8773194599996361 0.6863844786560896 0.9163435310601882 0.8150043418368553 0.9073792843558957 0.9235027056801943 0.8628212246827517 0.6845641095116004 0.7353841318201489 0.7852300311680743 0.9195953241334019 0.8318799313744317 0.8410547706412408 0.8410551272535104 0.9712889626361926 0.8485820375397435 0.8257269357913248 0.8075111182255683 0.9931924256741729 0.8485758378628424 0.7579615243282405 0.8181844704339095 0.8333477136913466 1 0.8170792423363664 0.889951607002782 0.7478435448903951 0.8123580063326254 0.7795267209653544 0.8868743736354493 0.8937513279911311 0.8073851001149691 0.7575613354561203 0.8928744829375034 0.8238256664858971 0.9788034806642839 0.8095283786807845 0.9617160277735661 2:2 3:2 4:2 5:1 6:3 7:1 8:2 9:2 10:1 11:3 12:1 13:2 14:3 15:3 16:2 17:2 19:3 20:4 21:4 22:2 23:4 24:1 26:3 27:1 35:8 36:3 37:4 38:3 39:6 40:1 41:3 42:3 43:3 44:3 45:1 46:4 47:3 48:2 49:2 50:2 51:2 52:1 
0.09646434859332173 0.09887509286332294 0.004304590061926749 0.07369694681600024 0.09969307436362516 0.07812248277082799 0.06509428165583325 0.02220861589431664 0.02667424751029343 0.2308012705875089 0.4844516090757141 0.1963311234455635 0.08314916594771067 0.224606324738681 0.04666484293166242 0.2413108412529179 0.1388864730469778 0.3999353885716067 0.07863693979405759 0.1016099025435505 0.0737189613456017 0.1326213804245673 0.01590420273759009 0.008240669898937611 0.1505110590160517 1 0.04139199798437582 0.7106380127223157 0.1322899366843563 0.1957230655367362 0.1291927073478322 0.06512595558604245 0.1393375546835033 0.1023448816043684 0.06810923565146872 0.03877937534774722 0.8752117830888053 0.1219622259638772 0.08106137314553444 0.07267794493597794 0.06967033517189083 0.1188214410114169 0.09456690377667024 0.06756173039115645 0 0.1579837680466264 0.7939354522287034 0.1474486741222401 0.2105518805848756 1 0.2968331761925273 0.2112823322532861 0.08105244338605189 0.1313533100081617 0.04897438170254319 0.05902765667997437 0.3297937655521171 0.6658736567768873 0.2643743938672697 0.0753642600624523 0.2924766354840022 6:1 7:1 8:2 9:1 10:2 11:1 12:3 13:1 14:3 15:4 16:2 17:3 18:2 19:2 20:2 21:2 22:1 23:3 24:1 25:2 26:1 27:1 35:3 36:2 37:1 38:3 39:4 40:1 41:2 42:2 43:2 44:2 45:3 46:5 47:3 48:4 49:2 50:1 51:1 
0.04982424430316188 0.03333810118880424 0.1311438663425402 0.05346989062682541 0.02559611690347981 0.02329445026450944 0.01736513280795123 0.04682538239151438 0.02643914556306742 0.05123829330232677 0.1685195159683741 0.1731835952191234 0.03937996074641389 0 0.02827331392434772 0.02736187986810871 0.03205621502003592 0.178670197983919 0.01699086268713514 0.03938842740549221 0.007210443064409233 0.1014783962487431 0.01125294564710334 0.1882000919358617 0.05255276954684913 0.5537887104074726 0 0.1049784319493428 0.01788586785652451 0 0.1291945441878214 0.01308287504699105 0 0.02541879494956906 0.0209036988904659 0.03150080460307425 0.1689751887339795 0.08196137490252511 0.01391932883611698 0.02546475816875217 0 0.02982104803908676 0.03359359572588192 0.02137746971994555 0.03372715646695361 0.04265493432768109 0.002040335700626788 0.03876687101067489 0.009200951886661271 0.2987678475015103 0 0.2191603879454513 0.02522525978710331 0.1223968692871655 0.03109468417013505 0.02006655359948476 0 0.1355186419282408 0.004819954826202893 0.02950680628686335 0.2192883375158083 5:2 6:1 7:2 8:2 9:2 10:1 11:2 12:3 13:2 14:3 15:1 16:2 17:2 18:5 19:2 20:3 21:1 22:2 23:3 24:3 25:2 26:2 27:1 35:3 36:5 37:1 38:4 39:3 40:3 41:4 42:4 43:3 44:2 45:1 46:3 47:2 48:4 49:1 50:4 51:1 52:1 
0.6735268251582519 0.6651799837010975 0.6017450504899259 0.6437429715217369 0.6577909569779071 0.5757394419922898 0.56725200223471 0.4983150879262814 0.618139718334467 0.6494205393601773 0.746288678963396 0.7498084061679923 0.6118459135015444 0.5438697432562403 0.5159140854598315 0.7808780711962395 0.6396804233483832 0.8063855826237798 0.559283467122159 0.6066693014124592 0.5390933317825959 0.7652429283753867 0.5796047178739197 0.8340006534626859 0.613848862435132 1 0.6031509898770141 0.9251036008179919 0.6811389555006379 0.5839994397519085 0.4452767202358803 0.5117645964176574 0.4883792006487726 0.650745933276955 0.5594590729205469 0.5567713838092133 0.6758711784121063 0.7217078601834716 0.5790735323567707 0.5775384483896918 0.5492145165041146 0.7278866923972253 0.5978918821342891 0.5525653847421307 0.7460904927427047 0.6056685260401197 0.9402161728005831 0.6026996574623263 0.6496285189369247 1 0.5547346024558418 0.9032609423852017 0.6415527377825182 0.6599924422438139 0.536576978188429 0.5458111735411397 0.5948452156816196 0.6943453005482018 0.5775281325196094 0.6062310835940482 0.7246205779010171 7:1 8:3 10:3 11:1 12:6 13:1 14:3 15:1 16:4 17:2 18:3 19:4 20:1 21:2 22:2 23:3 24:2 25:1 26:2 35:3 36:4 37:4 38:4 39:3 40:3 41:1 42:2 43:3 44:2 45:2 46:4 47:3 48:2 49:4 50:1 
0.9065166716756385 0.9079022457806487 0.8684691129831134 0.979798078612635 0.9241275858854243 0.7772614289318024 0.7614481349814212 0.7675543010940201 0.7133825678391734 0.7938779053797064 0.8239427610179938 0.8998823397267841 0.9129345274736959 0.747453300765814 0.7218944639124061 0.9730620970900824 0.8400591666870698 1 0.5467926113254079 0.8344987233333853 0.7043363435187401 0.9229358599975556 0.7382100539436702 0.7031582446230467 0.6533860367991259 0.612462108864637 0.8167465367060861 0.822433800370286 0.8807449493051941 0.7354576377961323 0.7286521590780332 0.6768034077482514 0.6370419680527881 0.8931923288614362 0.7490661802197908 0.6998870300426631 0.5843161214297787 0.9973624381106272 0.7910800151375661 0.7840222668070123 0.7507480211212944 0.9659628128620276 0.8225417408561976 0.746165538192934 0.7387412663940349 0.8169150254294537 0.6947114363586216 0.7949166751791934 0.8482715556109925 0.6904556639340413 0.7459486798646469 0.7765313541776598 0.810414713941817 0.9417800798244534 0.6760459240616332 0.7433543089532882 0.8527075679828189 0.5668077384167439 0.8611214454717401 0.7626164528426584 0.9443121408239809 3:1 4:2 5:2 6:2 7:2 8:2 9:3 11:3 12:3 13:2 14:3 15:3 16:3 17:2 18:4 19:1 20:4 21:2 22:2 23:2 24:1 25:4 26:1 27:2 29:1 35:2 36:8 37:2 38:4 39:3 40:2 41:4 42:4 43:2 44:1 45:1 46:4 47:2 48:3 49:2 50:1 51:6 52:2 53:1 54:1 56:2 
0.1589544000008511 0.1058275802007647 0.3326217784494382 0.09390549028084345 0.1061344988727169 0.09818783235605216 0.1009342136585603 0.2769637349459743 0.1415841643946699 0.08688296778530213 0.01613124195127962 0.1446120618413158 0.1153019855272897 0.3117642062688911 0.1110786661409799 0.09438711399719997 0.08970783145920876 0.04731607756635404 0.5101547360160826 0.2410837427315471 0.06699381590486807 0.04218348313840049 0.1186024754361869 0.8331081248129329 0.3995240212571269 0.8205738941166953 0.1411601685996518 0.2708400371544119 0.09029951754730212 0.5266719288318787 0.2764140828837247 0.07195761853450865 0.5135971551089835 0.1026879302226272 0.09375465133603865 0.08117995226982744 0.5513484253631784 0.1620659656547609 0.09670550270174628 0.1183064008834095 0.08082447894105305 0.1058421182268933 0.1312270329748514 0.1012250605325713 0.4482918380368645 0.08691507161928026 0.8145268290984936 0.08457202524909774 0.2596164052791017 0.81223266337589 0.2483370400812676 0.2693844942931228 0.08333140034279861 0.05152305202593754 0.0807584860104963 0.1128961137194904 0.3739677940225121 0.5426903302966675 0.1667907039554004 0.08385134351767275 0.1500000790822942 2:1 5:3 7:2 8:1 9:2 10:1 11:3 12:3 13:1 14:2 17:1 18:1 19:3 20:2 21:3 22:2 23:3 24:2 25:1 26:2 27:2 35:2 36:3 37:2 38:4 39:2 40:1 41:3 42:3 43:3 44:3 45:3 46:2 47:1 48:2 49:2 50:1 51:2 52:1 54:1 
0.3204014442830488 0.3558724079812866 0.2732207442725103 0.3397903375231497 0.3557529448214188 0.297296666647371 0.2750197904906443 0.1755714739374662 0.1897725922558136 0.2995416938363766 0.3576504621349246 0.2773842957842508 0.3208246944200903 0.4948724683415945 0.2132725023410272 0.3406345655287272 0.340826519641657 0.3838165454345239 0.3085949935306454 0.3397601012659534 0.2604806532414587 0.3613663626709712 0.2303341968528543 0.4692077958030263 0.3483908425641845 0.8471292714700102 0.2702411352880767 0.2487215791338255 0.3405153061399584 0.4591951077532214 0.2975905268618494 0.2568272252216316 0.3687147713148225 0.3505907576045923 0.2977358040206124 0.2519057367756965 0.6747475396826699 0.2929432234575534 0.3076331190521348 0.2952878984707281 0.2685865077041435 0.3714810184031141 0.3444927157943363 0.2774981234273873 0.1337498693810392 0.3173436258253273 0.3189952490188337 0.3105365679556623 0.4184659183206724 0.4740824489617836 0.4579753426277355 0.4100384687180164 0.3099005304408516 0.3481817542507682 0.2437070201588475 0.264876677393906 0.399065942796162 0.3975174928163234 0.4069967163267405 0.289765191243599 0.425022264103844 4:1 5:3 7:2 8:1 9:2 10:3 11:1 12:2 13:2 14:1 15:3 16:1 17:3 18:2 19:4 20:3 21:2 22:2 23:4 24:2 26:3 27:1 35:2 36:3 37:2 38:4 39:4 40:5 41:5 42:2 43:1 44:4 45:3 46:2 47:4 49:2 50:2 51:2 52:1 
0.6855804006089911 0.6976717343221873 0.6032715066074034 0.6781729127606521 0.6972228799355769 0.5949829135042806 0.5853293828629152 0.5264938615580506 0.5527918221289786 0.5891688231705772 0.6300794783257089 0.6594282314009163 0.6555889341882131 0.755827848914345 0.5054685240854138 0.7246835623274092 0.6460637866033392 0.8041570331273143 0.4456364114784096 0.6523703441601791 0.5531426791416616 0.7108232995993524 0.5403096827143239 0.571700801890304 0.5027354917912685 0.855227523604571 0.6167359366580922 0.6404963641723664 0.6804587676146762 0.6707031843668219 0.6801779994669368 0.5316410398847862 0.5337383129001357 0.6848003370934487 0.5927361512161679 0.5322218550582014 0.6370525086724962 0.6736945065006889 0.6106046602059799 0.5982200998111453 0.579347154980223 0.7434253961192616 0.6432306362065289 0.5668025703988862 0.600023556497907 0.622914998337029 0.6470960717048673 0.6096367455091835 0.6814826236159279 0.6998256823281157 0.6439485037409542 0.5856079626111413 0.6253861264984644 0.7126417277406845 0.513141994234094 0.5577302465165511 0.6874970948884412 0.524381998340072 0.704512189093397 0.5817578207650678 0.6905615970371194 3:1 4:2 5:4 6:2 7:2 8:2 9:4 10:1 11:2 12:4 13:4 14:3 15:2 16:2 17:3 18:1 19:2 20:2 21:3 22:2 23:2 24:4 25:1 26:1 27:1 35:3 36:3 37:4 38:3 39:3 40:4 41:2 42:2 43:4 44:1 45:3 46:4 47:1 48:2 49:3 50:1 51:2 52:3 53:1 54:1 56:7 
0 0 0.08520647669025404 0 0 0 0 0.09885127620367094 0 0 0 0.1074888904954675 0 0 0 0 0 0 0 0 0 0 0 0 0 0.06758652446517867 0 0 0 0 0 0 0 0 0 0 0 0 0 0 0 0 0 0 0 0 0 0 0 0 0 0 0 0 0 0 0 0 0 0 0 5:1 6:2 7:2 8:2 9:2 10:2 11:2 12:1 13:3 14:1 15:2 16:2 17:1 18:3 19:3 20:2 21:2 22:3 23:2 24:2 26:3 27:1 35:2 36:5 37:2 38:2 39:3 40:4 41:5 42:2 43:2 44:3 45:2 46:1 47:2 48:3 49:3 50:1 51:2 
0 0 0.02186139669225835 0.04336524228343289 0 0 0 0.01931207453278226 0.05463474087167234 0 0.1100044957218747 0.04429721457624608 0.0246598853284514 0.01304466091354091 0 0 0 0.1358795093030489 0.05610175714053234 0 0.01442034249312424 0.08004083472816478 0.0287443458058136 0.09148841211493726 0.02018764378854606 0.1229358104446732 0.009639031009834795 0.01335165472025044 0 0.1857082120257036 0.133550752844272 0 0.01950439172560877 0 0.001643176340374358 0.003870593502419914 0 0.07959771346514254 0 0 0 0 0 0 0.1609957788985903 0 0.03269852591153544 0 0 0.03712675963982568 0 0.1649838331288811 0 0.02568054168008484 0.007881007219579499 0 0 0.05113213530636163 0.07465706066318066 0 0.1253556170019725 3:3 4:1 5:2 6:3 7:1 8:2 9:2 10:2 11:4 12:2 13:3 14:3 15:3 16:2 17:2 18:4 19:2 20:1 21:3 22:3 23:1 24:1 25:1 26:2 27:1 35:3 36:5 37:3 38:2 39:6 40:3 41:4 42:2 43:3 44:2 45:3 46:2 47:2 48:3 49:2 50:2 51:2 52:3 53:1 54:1 
0.5833785303238089 0.5655659039897225 0.5318361418509209 0.5324342788647772 0.5641948853509884 0.5082066645809886 0.5129106723954888 0.5626921699833802 0.5692588422840018 0.5314164724179204 0.5034376715294591 0.5562013296884618 0.5267888467647592 0.6981650869832028 0.4830718243209133 0.6366327769544947 0.535428275504642 0.7402921887994085 0.72728770430622 0.588467764685178 0.4484094249180408 0.6139121492547175 0.5657745633527616 0.9375311577544354 0.6459621730626277 1 0.5653034453320349 0.8626132852736392 0.5720697821426866 0.8953861874216694 0.6019921795653064 0.4358449505155143 0.7521135373018588 0.5602930081029672 0.4865369942994096 0.4535605751562839 0.474798504578638 0.5703036535268277 0.5236754842473369 0.5243620522075713 0.5649400774719008 0.6081599973975064 0.5468085130182496 0.491297992017483 0.7320201326004525 0.5185221133633657 0.9932113549037329 0.5051549450401466 0.6256119932165679 0.9840442952174316 0.6806443401176048 0.7680513446744945 0.5199770699879563 0.5248771072714359 0.4423213941279945 0.4938599426297496 0.6872775537236094 0.8924419335851927 0.7045828913513811 0.490229042717052 0.6428751628050035 5:1 6:3 9:2 10:2 11:2 12:1 13:3 14:1 15:3 16:2 17:1 18:3 19:1 20:3 21:2 22:3 23:1 24:2 26:3 27:1 35:1 36:4 37:4 38:2 39:3 40:4 41:4 42:1 43:1 44:4 45:1 46:3 47:2 48:1 49:1 50:2 51:1 52:1 
0.426835831500324 0.457183747950805 0.3182589675355388 0.4302606717474061 0.4407295355904706 0.3902736733801941 0.3624757695791989 0.1636368502053861 0.3703265348888281 0.3601567605377314 0.262838412032903 0.3073464829007356 0.4139758342203556 0.3841084041517657 0.2904279897602281 0.4084920934535362 0.4214800999468231 0.311884852249539 0.2948885616994934 0.4356369183574299 0.3373066544797605 0.3213245910828646 0.3295849088091696 0.4361501603272855 0.3269393310188135 0.2375850884226116 0.3886734445883014 0.3265089684587407 0.4347566912099802 0.1727298262022151 0.6875765733289708 0.3113758957231915 0.2709664564983253 0.4536253967346918 0.3589455931843323 0.304864830602672 0.3298696363480024 0.3913447967161474 0.3808818340086897 0.3506475304616785 0.3641220621038082 0.4691441805092642 0.4334012411919084 0.3671085941997717 0.4882214711179765 0.4035620809124169 0.6010896895557267 0.3982809397043897 0.4379659432811709 0.3878533364169515 0.3398780580513614 0.3024695156604625 0.3959739388765779 0.4020654270291419 0.3175355739678921 0.3573450106472355 0.3286734870098239 0.4033725158452431 0.2704209938193667 0.3742263088324796 0.4279425779733199 1:1 2:1 3:1 5:1 6:2 7:4 8:2 9:2 10:2 11:3 12:3 13:2 14:3 15:2 16:3 17:1 18:1 19:1 20:2 21:2 23:2 24:3 25:2 26:2 27:1 35:2 36:4 37:2 38:3 39:4 40:2 41:4 42:2 43:3 44:1 45:2 46:1 47:1 48:4 49:1 50:2 51:1 52:1 56:9 
0.8721909700739211 0.9098600951496109 0.9180743583798803 0.9129168255941947 0.883813249760705 0.7548169068789545 0.7395495919230531 0.7108139365079477 0.7020810367606561 0.7765830512065762 0.7972968608898788 0.879919720498552 0.8611446400028293 0.7445686767497324 0.6630071729672461 0.9101338511851541 0.8323442854729808 1 0.6142579586492359 0.8187269949130433 0.6982464104941538 0.9235579625351338 0.7080776074945763 0.9055707046575673 0.7435644659022504 0.9420953526769978 0.7626129905557028 0.9213345675037921 0.8594246321142422 0.8095210505427497 0.7814805107077168 0.660668824194189 0.6596033540947145 0.8701933037407943 0.7454189371270082 0.7197897369631867 0.6985589098234052 0.9844055136785202 0.7796552908283824 0.757989970059327 0.7272565842385752 0.9424502829196139 0.808626097808591 0.7174377507138657 0.8498306459550369 0.7981015023766113 0.8094030412309774 0.7812943384051259 0.8337089265610728 0.8254569717719868 0.7598421187832793 0.8497371709823501 0.810310342315452 1 0.6879342259315386 0.7090753639063988 0.8469377168088679 0.6260453478341158 0.8483567841399238 0.7563748560305367 1 4:3 5:2 7:2 8:1 9:3 10:1 11:3 12:4 13:2 14:3 15:3 16:1 17:3 19:5 20:2 21:2 22:3 23:5 24:4 25:5 26:3 27:1 35:5 36:4 37:3 38:4 39:3 40:6 41:4 42:3 43:3 44:2 45:3 46:2 47:2 48:3 49:1 50:3 51:3 52:2 53:2 55:1 56:2 
0.1303672710522483 0.1238738512552409 0.1163547285562697 0.1487613838868466 0.113593837199596 0.09957039367810136 0.09836669140815553 0.2387656897725334 0.1032930559190765 0.1633689716716012 0.3250031396723668 0.4106239657650998 0.1291666018013982 0.1852530461236431 0.1065056092741366 0.1718384063632592 0.1509873721110256 0.3833598775687168 0.2192643522068748 0.09343882001434556 0.140796325930885 0.3080119514034197 0.1021078096779151 0.3596411079015247 0.3563932850590359 1 0.1022632790399631 0.5137317367329528 0.1529574140819733 0.4205500108266099 0.1107145615832939 0.1338650770647432 0.2134563133068771 0.1130141206216432 0.1429291759217446 0.1552869069626927 0.2746476746604715 0.1967944358036513 0.110852926344948 0.1088792479565178 0.1053757045679732 0.1427852779368459 0.09874984786282077 0.09397027502786265 0.3094280712505673 0.1426639011758102 0.6171439879350231 0.1313529314216114 0.2135253528365172 0.8602624171842649 0.3522520780411483 0.3666739771501007 0.1420567230245307 0.1302074699170003 0.1401690991612136 0.09694992734376681 0.3553451748062789 0.3682383326772449 0.3034479202730128 0.1184933890061518 0.1899974121577339 3:1 4:1 5:2 7:2 8:3 9:1 10:3 11:3 12:3 13:1 14:2 15:2 16:1 17:2 18:3 19:1 20:3 21:2 22:1 23:2 24:3 25:2 26:2 27:1 30:2 35:5 36:3 37:2 38:4 39:3 40:2 41:2 42:3 43:2 44:4 45:3 46:5 47:2 48:3 49:2 51:2 52:1 54:1 
0 0 0 0 0 0 0 0 0.04273355672148661 0 0 0 0 0 0.0116540515008075 0 0 0 0 0 0 0 0 0.08190706909732337 0 0 0 0 0 0 0.1007525988343923 0 0 0 0 0 0 0 0 0 0 0 0 0 0.1785507453350629 0 0.5463640757012735 0 0 0.0202741047486587 0 0.05878943962246317 0 0 0 0 0 0.2829506809126944 0 0 0 4:1 5:2 6:1 7:2 9:2 10:2 11:1 12:4 13:2 15:3 16:2 17:2 18:4 19:2 20:2 21:1 22:2 23:1 24:3 26:2 35:3 36:3 37:3 38:3 39:4 40:2 41:4 42:1 43:2 44:2 45:1 46:2 47:3 48:1 49:2 50:2 51:2 53:1 
0 0 0 0 0 0 0 0 0 0 0 0 0 0 0 0 0 0 0 0 0 0 0 0 0 0 0 0 0 0 0 0 0 0 0 0 0 0 0 0 0 0 0 0 0 0 0 0 0 0.01525296872951208 0 0 0 0 0 0 0 0 0 0 0 1:1 2:1 3:1 5:1 6:2 7:4 8:2 9:2 10:2 11:3 12:3 13:2 14:3 15:2 16:3 17:2 18:1 19:1 20:2 21:2 23:2 24:2 25:2 26:2 27:2 35:2 36:4 37:2 38:3 39:4 40:2 41:4 42:2 43:3 44:1 45:2 46:2 47:1 48:4 49:1 50:2 51:1 52:1 56:9 
0.7774563232027135 0.7765716123552208 0.6840336398361803 0.7522199921707664 0.7718534824171075 0.6964700268205318 0.7472853754075519 0.5836015632312643 0.9583594774758171 0.6927358118456775 0.6386572367718766 0.6665471056368983 0.7123282929012282 0.6704342320365784 0.7136914132140919 0.8360321632431965 0.7257668172534977 0.890339897865407 0.7536389332508477 0.7621186611008729 0.6123000930451852 0.7153762866368935 0.7318996309203826 1 0.8302057478084639 1 0.7318588757799744 1 0.7640010188427876 0.7821334921984993 0.808067004773712 0.5777734620374884 0.6633778730832243 0.7667523927744491 0.642204172884183 0.6555995549149196 0.6682347627796257 0.7252270738356319 0.6900073869390895 0.7045363068850137 0.7437984152944398 0.8358278507958522 0.7197511271364101 0.6680761914737714 1 0.6879406948676319 1 0.6813641169078426 0.8225229147507163 1 0.7154210047093862 1 0.7066423379482513 0.7008198104648753 0.6159145014495797 0.699427835190035 0.7472213316854256 1 0.7083970605212363 0.6648063285539305 0.8440711357846975 3:1 10:1 11:3 12:1 13:2 15:2 16:3 17:1 18:1 19:3 20:2 21:4 22:1 23:2 24:2 26:1 27:1 35:4 36:2 37:3 38:3 39:2 40:2 41:1 42:4 44:3 45:1 46:2 47:2 48:1 49:1 
0 0 0 0 0 0 0 0.05906786020441841 0 0 0 0 0 0 0 0 0 0 0 0 0 0 0 0 0 0 0 0 0 0 0.04664733529756971 0 0 0 0 0 0.03448407245315782 0.08164435530189738 0 0 0 0 0 0 0.02024219949820986 0 0 0 0 0 0 0 0 0 0 0 0 0 0 0 0 4:1 5:1 6:1 7:3 8:3 9:1 10:4 11:1 12:2 13:3 14:2 15:2 16:1 17:2 18:3 19:2 20:2 21:2 22:3 23:1 24:1 25:1 26:3 35:2 36:4 37:3 38:4 39:2 40:3 41:2 42:3 43:1 44:2 45:3 46:2 47:1 48:2 49:3 50:2 51:3 52:2 53:1 
0 0 0 0 0 0 0 0 0 0 0.08923020850964597 0 0 0 0 0 0 0 0.05094788219584447 0 0 0 0 0.2823609299621942 0 0.7850692561257242 0 0.1154315568669138 0 0 0.354158474494823 0 0.02936373393379553 0 0 0 0.07991686119732856 0 0 0 0 0 0 0 0.04719792187758489 0 0.3284637673068111 0 0 0.297510643673294 0 0.04612280304226297 0 0 0 0 0 0.4133600475247449 0 0 0 5:1 6:1 7:2 8:1 9:2 10:2 11:2 12:1 13:3 14:1 15:2 16:2 17:1 18:3 19:3 20:2 21:2 22:3 23:2 24:2 26:3 27:1 35:2 36:4 37:2 38:2 39:3 40:4 41:5 42:2 43:2 44:3 45:2 46:1 47:2 48:3 49:3 51:2 
0.8020154871454246 0.812308425772002 0.7456621066881155 0.7973652264228661 0.8120212617411418 0.6965577881914949 0.6927742772707555 0.6397512562674057 0.6516469397298035 0.6772731295581621 0.6716519129506013 0.7413627901179972 0.7635355874797879 0.7913360340460089 0.6295991813707099 0.8248446467765973 0.7514218158125098 0.8198266913328287 0.5116471317420969 0.7563662205508477 0.6227239777958768 0.7498168690464214 0.6620777310085998 0.6832284621380824 0.5848853616694164 0.6552007076896975 0.7145323299564109 0.6772725479758701 0.7849943548629437 0.6013769679754187 0.6964514070636544 0.59951442012012 0.597467443937005 0.7999350833521234 0.6689413880627381 0.5971143944283922 0.6262467394451243 0.766963011809948 0.7029223304435188 0.7050227085925037 0.6755099551178396 0.861444725881942 0.7515657784231914 0.6643291803008256 0.7187685961251802 0.7274113589128579 0.7107003604224756 0.7102613261990502 0.7864973110542952 0.6555412804624634 0.7028550507993717 0.709535805982383 0.7202077089005683 0.7526037411030289 0.5892920839582542 0.6623079989933442 0.7643920016095999 0.5908149926377868 0.7846854287989813 0.674003598004237 0.7502975115743444 1:1 2:1 4:3 5:3 6:1 7:2 8:3 9:2 10:3 11:2 12:3 13:2 14:1 15:3 16:1 18:4 19:1 20:2 21:3 22:2 23:3 24:1 26:2 35:3 36:3 37:3 38:3 39:3 40:3 41:2 42:1 43:1 44:2 45:3 46:2 47:2 48:1 49:2 50:2 51:3 52:1 53:1 56:8 
-0.03717970608992567 0.1221607650274047 0.02158470535870629 0.05661493494759025 0.329302147622367 0.2286047266998071 0.3484646535866091 0.03501325595541155 0.1398666942861321 0.08074204861790189 0.07631171061490179 0.07925325837220164 0.08569377590889679 0.08516511831566481 0.2771061671364943 0.1337256296168701 0.1044734959806763 0.1059447974253705 0.04671712809807293 0.1067144229594362 0.1602826029117306 0.1080854569918992 0.2489147232827189 0.06110289829582408 0.0594609164718719 0.05337962042842749 0.1516986620728583 0.05763431686532327 0.1785401002473984 0.05759249759936637 0.06758273728829503 0.216687741710106 0.06236794495682128 0.1453759501496622 0.1035413814752483 0.2724836020266995 0.05591689414001175 0.07032714828046294 0.2096463972425235 0.4116011079136257 0.2305705205238704 0.1524988074427245 0.1023189386021791 0.2434495674164234 0.04824020018952481 0.09690606891439235 0.05181901777492791 0.09387784901998207 0.1111122476761053 0.05980652119375391 0.08168898235658491 0.06992259128005515 0.2636370238935033 0.09156807718246443 0.3631241678168791 0.4522318712716952 0.09504914816395323 0.04735405731724499 0.09726165668825272 0.1476533227139483 0.09273715750878364 4:2 5:1 6:5 7:1 8:3 9:2 10:2 11:2 12:2 13:2 14:2 15:2 16:2 17:2 18:1 19:4 20:2 21:2 22:1 23:3 24:2 25:4 26:4 27:2 35:13 36:6 37:15 38:1 39:1 40:1 42:1 43:1 45:1 46:1 47:1 48:1 49:3 50:6 51:3 
-0 0 0.5232133306111726 0 0 0 0 0.3645522508608756 0 0 0 0.6089222938902632 0 0 0.1007465030308833 0 0 0.09927329145261654 0 0 0.07427813966822928 0 0.1329104471032686 0 0 0 0 0.07636368141653857 0 0 0 0 0 0 0 0.5259880902114502 0 0 0 0 0 0 0 0 0 0 0 0 0 0 0 0 0.1380484666489567 0 0.2212066878511984 0.001026523304725832 0 0 0 0.1046270161012767 0 5:1 6:2 7:4 8:1 9:2 10:2 11:1 12:1 13:1 14:1 15:1 16:1 17:2 18:2 19:2 20:3 21:1 22:3 23:3 24:2 25:3 26:3 27:4 32:1 35:6 36:11 37:7 38:1 39:3 41:1 42:1 43:1 44:1 46:1 47:3 48:5 49:5 50:1 
-0.1341291907704984 0.3682906486999505 0.1508796084886753 0.3412487965461177 0.3715580273778912 0.2630688933198866 0.2477982417978915 0.1194224974519322 0.1825862656942896 0.2119415626531551 0.2324006588107169 0.2956894655032434 0.306700685542772 0.2451341607538009 0.1606068545924819 0.3502499756696161 0.2999047782218112 0.2981405964066229 0.1358070735362826 0.3071467821618853 0.1863252789924181 0.2999501013659359 0.2116535319178269 0.1775745941118176 0.1704552149388171 0.1503236899883632 0.2410833701921189 0.1671701737582689 0.323885472509801 0.1616558964443306 0.2031204942794785 0.18561501935154 0.1746577093963825 0.3566436466384342 0.2274468076284389 0.1169808242114119 0.1636632641977905 0.2926867729278088 0.2484563235907258 0.2449176731530486 0.2224337214486217 0.4310778841966177 0.2980441421499478 0.2237513749292984 0.171718585057702 0.281581927409811 0.153054381400358 0.2671066999250313 0.3230343947602429 0.1705365453992082 0.2365595252422511 0.2009896209915155 0.2088718092736778 0.2737823923816158 0.1412166809837064 0.2146745035906068 0.2677535892275514 0.1309688252564365 0.2765452266727536 0.174311558852653 0.277031078142851 7:3 8:4 9:3 10:3 11:2 12:2 13:1 14:1 15:1 16:1 17:1 18:4 20:3 21:2 22:2 23:1 24:1 25:1 26:6 27:3 35:2 36:11 37:6 38:1 40:1 41:1 42:1 43:1 44:1 45:2 46:1 47:1 48:5 49:11 
-0.1698924682677874 0.5416073376769339 0.3050973403663428 0.5694048438221851 0.6266484817336199 0.4536034503518683 0.5457321295970972 0.2080802961891582 0.2809653130606425 0.3194764553111579 0.3081085647165104 0.3405135419083921 0.4018944838431889 0.3331162123290198 0.3252409119833166 0.484164234720696 0.4113386798376751 0.4380183335361003 0.1878996259957683 0.4155172378452176 0.3430620258911214 0.4150139411338065 0.3631263648093135 0.2486993271389463 0.2383867230245393 0.2127880247874349 0.3760285037549811 0.2388411544487711 0.5013289795646058 0.2297242944165124 0.2683985577013262 0.3046417417183578 0.2498538864963599 0.6120766353011052 0.3346131318082173 0.488932697682196 0.2190493997440898 0.3775798179236174 0.4038601090565941 0.3824810626056469 0.3927934082638369 0.5759209947082724 0.4016403076471515 0.3604256315924562 0.2158174914620794 0.377460447752506 0.2095900815049362 0.361394902016732 0.4340208851929986 0.2371022405501744 0.3211840009291959 0.2842144302541668 0.4502206551451558 0.3700156130512809 0.4633571022170215 0.5074239726145235 0.375413667555175 0.1866170898201023 0.3843564379255408 0.362032383697262 0.3830157730419282 4:2 5:1 6:5 7:1 8:3 9:2 10:2 11:2 12:2 13:2 14:2 15:2 16:2 17:2 19:4 20:1 21:3 22:2 23:2 24:2 25:4 26:4 27:2 35:13 36:14 37:7 38:1 40:1 42:1 43:1 45:1 46:1 47:1 48:1 49:2 50:7 51:3 
-0.140257717049327 0.3631265928536962 0.3894435356351373 0.3072373818000539 0.5535238445889167 0.3418381552173514 0.3539761884827177 0.3390891397063628 0.2836989003048516 0.270896762910752 0.224424633773772 0.2528156147301666 0.306569036411649 0.2426025243333362 0.2978128907352249 0.3696264833227777 0.3006237093155302 0.3288307291229906 0.1498901042730373 0.3070331022770125 0.1803741051183364 0.3078730104364678 0.3328854983881688 0.2127823374590572 0.1964082433376547 0.1619123332023571 0.2801400714618134 0.2011244807968336 0.3328103112639361 0.1992996431103953 0.1973367130127286 0.169133414969134 0.1966013314058224 0.3686907659870384 0.236344331945168 0.1705889800253114 0.1629456580212785 0.3166350825213228 0.2898488640584487 0.6904245686424407 0.2468327915176887 0.4194657553231138 0.2924818956008522 0.3157760639957298 0.2195627554986516 0.2757483095680136 0.1939576336402599 0.2638235005811549 0.3164284733153457 0.1830242698682215 0.2365791849526176 0.2476877013864562 0.2536823495293288 0.2734720993816915 0.1965126909975953 0.4740676678282867 0.2886019577807496 0.1485375259038922 0.2936037361237798 0.2310944142423333 0.2904484586984377 4:1 5:1 6:4 7:1 8:1 9:1 10:1 11:1 12:1 13:1 14:1 15:1 17:2 19:4 20:2 21:3 22:2 23:2 24:2 25:3 26:6 27:3 35:3 36:15 37:4 38:1 39:1 40:1 42:2 43:2 45:1 46:1 47:1 48:1 49:2 50:5 51:4 
-0.2684667200549496 0.529401597416146 0.7266963383670022 0.5109388430213569 0.5110234086321251 0.3494385578598591 0.319581072211775 0.3532903166170339 0.2598689924132688 0.359561288988983 0.3832169751931396 0.3661225557121173 0.4787313686476137 0.3707995364015101 0.2418977661784083 0.5225786767252285 0.4421770844294842 0.5126870220502024 0.2263671394828966 0.4543154480961414 0.2925368255399404 0.4643538569956604 0.24262273692113 0.3256003522872671 0.2733336136690558 0.2757490371870456 0.3405406122288289 0.3038912107514434 0.4800338483610879 0.3039992848007547 0.3059467452439097 0.2608194427787965 0.3083147263755745 0.4907327861487338 0.3433970815284164 0.2227580070275144 0.2732851525157533 0.5382664261384158 0.3726679394909516 0.3679562853384176 0.3129619557328206 0.6162634565380072 0.432683003334925 0.2921490113975723 0.3131937809402424 0.406387618598268 0.2911912358436984 0.3889227194905414 0.468328564477336 0.2816762661604693 0.3573453193581739 0.3450513713167171 0.3744824775017619 0.4140869616348353 0.2359100596590192 0.2823838109490298 0.4260341325449454 0.2328898929000937 0.4275950813611998 0.3255959017333397 0.4438071412625318 3:1 4:2 5:1 6:3 7:1 8:3 9:1 10:1 11:1 12:1 13:1 14:1 15:1 16:1 17:2 18:2 19:3 20:1 21:3 22:1 23:3 24:2 25:2 26:6 27:3 35:4 36:6 37:8 38:1 39:2 40:2 41:1 42:1 43:1 44:2 46:1 47:2 50:11 51:5 
-0.3577253950107706 0.947693242157999 0.6358904543858638 0.8507688772156228 1 0.6482983952494775 0.7518732824152773 0.5258945474434923 0.5092461225184182 0.6192019117986372 0.6073277509660301 0.6705385254854745 0.791065475570446 0.6401036799331901 0.5148139846226147 0.9256719557710789 0.7858780242233051 0.8808808101523061 0.3652617247371029 0.793834808374382 0.5222995562961841 0.803248723000326 0.5491124827385265 0.5049850283378373 0.4628238744267512 0.4282109631056628 0.6327249087417304 0.474711046900608 0.8614591544465006 0.4590209070576945 0.5173466148057458 0.4913023632796284 0.4821095746121805 0.91713154532078 0.6095689843973987 0.4584872447232763 0.4252806417302954 0.7605389962697451 0.6957553411379515 0.7022114755515528 0.5840084596602276 1 0.7672521850965215 0.6246260523383903 0.4705183488856131 0.7220167105572488 0.4578683175016275 0.6908944252166931 0.8300419367821941 0.4640439029207213 0.6152225061718816 0.5624210842689734 0.7148190097301909 0.7174981667800056 0.4672802414412376 0.6189314001217917 0.7234902705728493 0.3870870690982293 0.7395947699646529 0.6177418528208808 0.7502848527501578 3:1 4:2 5:4 6:4 9:2 10:1 11:2 12:2 14:2 15:2 16:2 17:2 18:1 19:2 20:5 21:3 22:5 23:2 24:2 25:1 26:4 27:3 28:1 30:1 31:1 32:1 33:2 34:1 35:6 36:9 37:11 38:2 40:1 42:2 43:1 44:1 45:2 46:1 48:1 49:1 50:6 51:4 56:13 
-0.3345544943961892 0.9410408300650326 0.5753362939902038 0.9766132779138741 1 0.6219872175652711 0.5817860695664075 0.4051346619385926 0.4288133884959652 0.5961601650474937 0.5900573480237898 0.6339334702368558 0.8080794671419711 0.6185610936020108 0.3967605884874068 0.8914624761280645 0.7630231561409504 0.8137444174104193 0.35279893973888 0.7710615660521352 0.5049657513325732 0.7794525649380366 0.4528685899266612 0.4727949866103126 0.4462177044064617 0.40893543128083 0.5993928791049273 0.4583702711891717 0.8386620363326505 0.439693805803639 0.5011793933178397 0.4600194031915976 0.46584519331087 1 0.5890102878299713 0.4175988208384686 0.4112488355164328 0.7820916806013234 0.6479878679977333 0.5885423354421536 0.5586801399156122 1 0.7454053894049805 0.5452366760863571 0.4353723777972399 0.7016239903865469 0.4088546926067802 0.6714196662752318 0.8056040180415562 0.4448285944917637 0.596221998415527 0.5378325423886943 0.6738192795399091 0.6955821405713536 0.4346706277429953 0.5063496232197212 0.6992836447208235 0.3548616223044916 0.711720331147711 0.5877319461114077 0.7214927823479658 3:2 4:2 5:2 6:2 7:4 8:3 9:2 10:2 11:2 12:2 13:2 14:2 15:2 16:2 17:3 18:1 19:4 20:2 21:2 22:2 23:2 24:2 25:5 26:5 27:3 35:6 36:13 37:8 38:3 40:2 41:1 42:2 43:1 45:1 47:2 48:1 49:2 50:1 51:6 52:13 
-0.1826217048504594 0.5336155026033774 0.1616880380530214 0.6145480487830948 0.7529976917565226 0.3594055703974678 0.3378831169544553 0.1890692147652942 0.2577423501943995 0.342003807649314 0.3474878713394764 0.3655393461101945 0.4492884574478793 0.3576650009065724 0.2136536968876958 0.5136798039900181 0.442385165384393 0.4608568121909828 0.2040434361041088 0.4475840830781559 0.2878155765934603 0.450923287349637 0.2800487666128313 0.2692710810991206 0.2551880992908035 0.2313240808866736 0.3375120222081882 0.253802369672053 0.479217903066061 0.2452689145655846 0.2906151475377278 0.2603945935193299 0.268394412349169 0.6318565221033904 0.3376881997907177 0.2094480697681343 0.2326473269339097 0.4242615955777527 0.3687451169852041 0.332801202531205 0.3199423439236923 0.620218118600482 0.4325376908674078 0.3082642661793267 0.243781389881971 0.4065633097704717 0.2222663206512864 0.3890569554677845 0.4673788589029707 0.2546976282116509 0.3451718594857165 0.3040548997358594 0.3710623693842063 0.4004636651636385 0.2190469581454311 0.2920034313257834 0.4017591804096907 0.2000878272510901 0.406569841053298 0.3332979948733046 0.4116540905647031 4:2 5:1 6:3 7:2 8:3 9:2 10:2 11:2 12:2 13:2 14:2 15:2 16:2 17:1 18:1 20:2 21:1 22:3 23:2 24:3 25:2 26:4 27:3 35:4 36:15 37:3 38:2 40:1 41:1 42:1 43:1 44:1 45:2 48:2 49:6 50:10 
-0.03347281622359502 0.08394001812388441 0.1526124387815478 0.1299611093171431 0.08012834502002078 0.02419477838493901 0.01947284129679854 0.06773553369047976 0.02236662384426097 0.05733696882059993 0.08672157125682972 0.09116616625556509 0.08050981758882242 0.05720295673764455 0 0.08383998998184511 0.06860132696706989 0.1436055897014647 0.03401653134570525 0.06881225479234815 0.04919000651052471 0.08318772798772273 0.004434418551892104 0.04876914747606158 0.04355734684216581 0.05144194948121296 0.03299965929935275 0.07216191505453519 0.07200287703425856 0.05121968017166018 0.04837981931413383 0.03479907419842247 0.04432064601512752 0.1111817345549821 0.05055908425604324 0.02626012328197594 0.04364484097870806 0.1363943568294369 0.0476082356541593 0.0208116343111991 0.03012862037956439 0.09668542222525112 0.06568783185558304 0.01805755427308451 0.04165917271879984 0.06448498861527334 0.04494824776469215 0.06021103712195407 0.07137932810102329 0.04469319703555363 0.05492087880744385 0.05923559269460534 0.0537177026620509 0.06475451079060611 0.02796963714181512 0.0073491602151564 0.075354467368662 0.03220314525155342 0.06611045219803904 0.04744839083398694 0.07053904079045552 4:2 5:1 6:3 7:2 8:3 9:1 10:1 11:2 12:2 13:1 14:1 15:1 16:1 17:2 18:1 19:4 21:3 22:2 23:1 24:1 25:4 26:4 27:3 35:4 36:11 37:4 38:1 39:1 40:1 42:1 43:2 45:1 46:2 47:1 49:7 50:10 
-0.2697223975117499 0.7434821884774074 0.4054505431708926 0.6796837640409905 0.7493234974399381 0.5125254768196424 0.4785095032402372 0.3078350891264438 0.3580212065222935 0.4760893740428931 0.4782810892869289 0.4960743419582194 0.6096065195414727 0.503340627560427 0.3293232770305977 0.717608684691263 0.6173144779750689 0.6673518088736672 0.2889729843574321 0.6249746617341803 0.4072755399589028 0.6325234044888267 0.3672892555132682 0.3889178004435157 0.3626472468288106 0.3374491800288853 0.4858703897079487 0.3612216991114799 0.6675572146213714 0.3635984721146681 0.4064484714176428 0.3751113660547216 0.3843988401742883 0.7184443139223848 0.4764600883928343 0.3263761095857191 0.3335075691685276 0.5775042747072634 0.5218988854366513 0.4888606496603357 0.4557785735026191 0.8590857996608524 0.6031963207065189 0.4529503914682774 0.3524472288731292 0.5640880369094325 0.3372083136727095 0.5405623810719542 0.651735009548457 0.3635732851143144 0.4839162110524069 0.436953121735901 0.5238144037061148 0.5587397907337447 0.3488958632914989 0.4167380637390243 0.5733549823794091 0.2941417515934055 0.5805953216164805 0.4489046539839979 0.5805711200503646 7:3 8:4 9:2 10:2 11:2 12:2 13:2 14:2 15:2 16:2 17:3 18:1 19:2 20:2 21:3 22:2 23:2 24:2 25:1 26:6 27:3 35:2 36:14 37:7 38:2 40:1 41:1 42:1 43:1 44:1 45:2 46:1 48:3 49:14 
-0 0 0.006837561183767661 0.4476813578871057 0 0 0 0 0 0 0.03228949134724204 0 0 0 0.01938657893215483 0 0 0.01051097677213085 0 0 0 0 0.003039575460688289 0 0 0 0 0 0 0 0 0 0 0.0960604574656982 0 0 0 0 0 0 0 0 0 0 0 0 0 0 0 0 0 0 0 0 0 0 0 0 0 0 0 4:1 5:3 6:2 7:2 8:2 9:1 10:1 11:1 12:1 13:1 14:2 15:2 16:3 17:2 18:2 19:3 20:1 21:4 22:1 23:3 24:2 25:3 26:4 27:3 35:7 36:13 37:3 38:3 39:1 40:1 41:1 43:1 44:1 45:1 46:1 47:1 48:1 49:6 50:9 
-0.1288275916625368 0.3343112717587791 0.2635117834870215 0.3176048785896318 0.3162878337919193 0.2199688219544829 0.1936553364646398 0.1407813116971287 0.1554850254081593 0.2150808039899191 0.2244521205026768 0.2437444575138352 0.2881100244287906 0.2245463134994169 0.1338173202596457 0.3215654262079286 0.2776646543525709 0.2972340092172039 0.1255575350275594 0.2806430836032553 0.179230734978696 0.2820976212709733 0.1867898656671636 0.1707605641226571 0.1620785051114739 0.1493344572629666 0.2108519096551238 0.1656213702469912 0.2917634520198684 0.1650650098991061 0.1838462765592284 0.1549007699439735 0.1667773202155688 0.4790824634176909 0.2111697473545885 0.1095093477601308 0.150542347601893 0.2881027120712158 0.2292027683049 0.1959578549018609 0.2062094522112349 0.3867968511121877 0.272129708396947 0.1784411662546852 0.1702490748833275 0.2549961330184335 0.1522803206592709 0.2447025760216725 0.2939110677077555 0.1605857126008471 0.2180746810095825 0.1915725163363388 0.2122587396827101 0.2525444820314094 0.09224528359680599 0.1729492727059883 0.2527626289659251 0.1288619423298396 0.2576048985334115 0.1872101035442102 0.2587270154633607 4:2 5:2 6:2 7:2 8:2 9:3 10:2 11:2 12:1 13:2 14:1 15:3 16:3 17:2 18:1 19:3 20:1 21:4 23:1 24:3 25:2 26:6 27:1 35:8 36:5 37:11 38:1 39:2 42:1 43:1 44:1 45:1 48:1 49:2 50:9 51:7 55:1 
-0.05811846600127113 0.1276338650727884 0.3160831799630016 0.1215259288708656 0.1455736822742824 0.07132343564564414 0.07300419957546708 0.08065589202754904 0.03271839313583615 0.08011705757569554 0.09303452546269057 0.4009157172471557 0.11285598173679 0.08803452912209661 0.05322603174846981 0.1235860214981792 0.1052458251374181 0.1660271104927194 0.04944304737097543 0.1056513420589187 0.07106540543947602 0.1253897085191025 0.02483454243664547 0.06793727101976191 0.0611316121188842 0.0712887789044365 0.1310892279702323 0.06300404508696246 0.1183881446542909 0.05173117196302065 0.0671824857766383 0.05867378261952542 0.06490410429417978 0.08674243084616434 0.07984047471972654 0.05756548639804041 0.06512829495644031 0.126874281277842 0.06786861257785884 0.03069767460175332 0.0532892399006178 0.1493622565448066 0.1034857940245107 0.07198526594361408 0.04881813237989818 0.09709930700232151 0.05637675609987273 0.09272560609321961 0.1118576889513185 0.0610290766402402 0.0823909616014805 0.06700608501619781 0.134845880135931 0.1016509466407821 0.01864388090447319 0.06153095170587679 0.09699717096082758 0.04941619503434233 0.09380821385822129 0.09664343697902367 0.09907356630356998 4:3 5:2 6:2 7:3 8:2 9:1 10:2 11:2 12:2 13:2 17:2 19:4 20:3 21:2 22:3 23:3 24:3 25:2 26:3 27:3 35:5 36:12 37:6 38:4 42:1 43:1 44:1 46:2 47:1 48:2 49:6 50:8 
-0.2349495141309222 0.6595231859624275 0.4303962860724027 0.6427775674787372 0.8988078311766593 0.4172498821527861 0.3746596097822097 0.2890639858872524 0.2893313410325344 0.4194309736765173 0.4422901921853876 0.4640850105417063 0.5998262428557951 0.4348061378320647 0.252018335817194 0.6242974760416594 0.5356633154531361 0.5893638829949204 0.2472757827764472 0.541416086238877 0.3807799206492276 0.5636992090624289 0.2975935356688565 0.3309161027199561 0.3123648478376682 0.2874964920395276 0.4069325766263725 0.3256073402460829 0.5881980501370591 0.3125200654617148 0.3515396785501613 0.3332198897718229 0.3279306594514554 0.7867049950249676 0.4275448256971595 0.2950036480126252 0.2884464849164632 0.5956892988660814 0.4583834124265659 0.3937273293603996 0.3827263448102236 0.7459473096352846 0.5235099930135757 0.3645109822019428 0.3002665490392343 0.4926518385912064 0.2839511608451225 0.4713048336604603 0.5651739054956696 0.3116234566701264 0.4191324121247433 0.375265889726597 0.4957430292698225 0.4937249500656371 0.2941495988304396 0.3174493897496065 0.4920196177158374 0.2486708940882874 0.50263352985586 0.4092314142960747 0.5034569782322249 2:2 4:1 5:3 6:5 7:3 8:5 9:3 10:2 11:3 12:2 13:3 14:4 15:3 16:4 17:3 18:1 19:3 21:3 22:2 23:2 24:3 25:4 26:7 27:2 31:1 35:10 36:9 37:11 38:2 39:2 40:3 41:1 42:1 43:3 44:1 45:2 46:2 47:2 48:2 49:3 50:10 51:8 52:1 54:1 
-0.1105603733225013 0.3138339628182937 0.1665488036932773 0.2695560739896104 0.4009000564212267 0.2028807493544156 0.1756504127722534 0.1170914094075477 0.1330359118956198 0.2030685977564162 0.1979581073738085 0.243494894126959 0.2543699368420259 0.2115706330078916 0.125623602035241 0.3033251313615274 0.2607786810022737 0.2867176280657551 0.120037382887758 0.2635745147005477 0.1726162183704551 0.2677921268909474 0.1394643940057498 0.1596075964609297 0.1502531228006695 0.1376458759662711 0.197788751720239 0.1561063499490359 0.2851076526791408 0.1461906407708964 0.170516005773378 0.1568818950880815 0.1584741759780143 0.3040232911204038 0.2005533602362277 0.1356603131317393 0.1394487356229767 0.2331631852125899 0.2154038539697105 0.1734011825747986 0.1854080980226571 0.3666147136779869 0.2546925766801429 0.1724989339219299 0.1464665551692594 0.2401879296319315 0.1321159378511566 0.2304964714609287 0.2750964834121026 0.1504322735954607 0.2035485548268878 0.1776575829903128 0.2425000736196981 0.237722331968421 0.143780237365856 0.1435400275514525 0.2381995028202451 0.1195737105212679 0.2428203261362774 0.2080960093550527 0.2455663853920105 3:1 4:1 5:2 6:4 8:1 9:1 10:2 11:2 12:2 13:1 14:2 15:2 16:1 17:2 19:4 20:3 21:4 22:3 23:3 24:3 25:4 26:7 27:3 35:3 36:15 37:4 38:1 39:1 40:1 42:2 43:2 45:1 46:1 47:1 48:1 49:4 50:8 51:4 56:9 
-0.3732078587406039 1 0.5810584240555037 0.9188373018867756 1 0.6766306069576177 0.6309689751399891 0.4288806222001714 0.4765867353710947 0.6968810227365773 0.6987235723717065 0.8362184123720452 0.8551476475127016 0.6750990317026579 0.44405703776565 0.9950335931419565 0.8599070957995705 0.9265862492923309 0.3850122787170683 0.8395366580934264 0.5602406778350979 0.8768241380513161 0.4899695276833901 0.5178159844636118 0.4867901022796691 0.4593712325495891 0.6445644076477345 0.5240958870743383 0.9185624093087393 0.4800864145978279 0.5464028215810154 0.503448796305073 0.5088352403403963 0.9655033561876452 0.6430492144529734 0.4438746340899521 0.4591922455024719 0.8023935317798943 0.6976524265375672 0.6443301066681117 0.6066990916299408 1 0.8116599214240683 0.5973757588137286 0.4738875685744502 0.7878964486081915 0.4479977656574762 0.7698671627714475 0.8787066283111717 0.4895920048298081 0.6511236253691796 0.590327594936741 0.7336458705244343 0.7682719283234031 0.469934611573494 0.5568390022132095 0.7650023692756223 0.3893214498207025 0.7786794210581153 0.6568011571832522 0.7940345924412661 1:1 2:1 4:1 5:1 6:1 7:2 8:3 9:2 10:1 11:2 12:1 13:2 14:2 15:2 16:2 17:4 18:3 19:2 20:4 21:2 22:2 23:1 24:2 26:2 27:6 28:2 29:2 30:3 31:3 32:3 33:1 35:2 36:13 37:3 40:1 42:2 44:2 45:3 46:5 47:4 48:8 49:9 50:4 51:3 53:1 54:2 55:3 56:1 
-0.2491908905023666 0.4514836385397576 0.8747648242845361 0.5226110456032592 0.7229013157794812 0.4787723522176077 0.6827069209090669 0.6663857441810102 0.4241413195278599 0.2879898010518296 0.2890749617896299 0.3324618784609162 0.4585931727977369 0.2919266397722949 0.7343239632335412 0.4298113551532552 0.3471519247827705 0.4202162866958582 0.1922264300832324 0.3581915297223002 0.3206771321232971 0.3753235611979929 0.8135047645195824 0.3138738220132628 0.223230619957438 0.2213928252655215 0.6845866668618144 0.2698364774272491 0.4039606572823632 0.2969373068013129 0.2524641242635897 0.3316898220957911 0.2612476724918792 0.4499505450224568 0.324618179589049 0.5417772517158457 0.1994693271681212 0.6277527461344724 0.5018441888483658 0.7703446856876339 0.5226064907733794 0.5102761099946337 0.3411267201344929 0.4476870934207995 0.4320058430580961 0.3179009262380841 0.2696635464091152 0.3037108429890111 0.3691371461131759 0.2284150281092932 0.2827549420262014 0.3214296816789707 0.3921963477407441 0.330528894577773 0.5945444447180921 0.7650131112503458 0.3447094834729521 0.19826609481356 0.3531871892270249 0.3021491248497277 0.3549263253577074 3:1 4:2 5:3 6:2 7:3 8:1 9:2 10:2 11:2 12:2 13:1 14:1 17:2 18:2 19:2 20:2 21:2 22:2 23:2 24:2 25:1 26:4 27:4 35:8 36:7 37:10 38:2 40:1 41:1 42:1 43:1 44:1 46:1 48:1 49:1 50:2 51:5 52:5 
-0.1826079458581225 0.2139779514984746 0.2648776297891789 0.2188725439537338 0.2436004632933304 0.4588756934686333 0.5217227183990317 0.4590785427057971 0.3090486360051662 0.2298206901101683 0.1644030768378228 0.1909893903543469 0.1846603042344506 0.1823310221366713 0.5224983902933895 0.2790124182835803 0.1753600825593958 0.3425686551145815 0.1105567392462388 0.1907316060441482 0.1765139934688679 0.2354669394432418 0.4278091751249393 0.1746594089284594 0.1325621322187577 0.2297390350512385 0.5997801898710583 0.1854198050286327 0.2704811032324865 0.2442384124815871 0.1680177781540895 0.2626274776465219 0.1598158623788206 0.2320647652267915 0.1652004987010091 0.1971677775783554 0.1146948952131672 0.2012590041731481 0.2163046338556779 0.575018169151946 0.3714544205608274 0.2576477943624146 0.1783978422487996 0.4512308821046175 0.2533790107248597 0.1614943712875788 0.2216630694331641 0.1522080786429362 0.1963155840103255 0.1854622643502132 0.1592467118593319 0.1892401591909052 0.1466742255168809 0.1709030941530392 0.3490165542631026 0.7417352737081553 0.2193110327623406 0.1492970961640457 0.2186666130807744 0.1174771967258482 0.181328136512652 5:3 6:1 7:4 8:2 9:1 10:1 11:1 12:1 13:1 14:1 15:1 16:1 17:1 18:1 19:2 20:1 21:2 22:2 23:3 24:1 25:3 26:1 27:4 35:2 36:12 37:7 38:1 39:1 40:1 41:1 42:1 43:1 44:1 45:1 46:1 47:1 48:5 49:3 
-0.1800397343749948 0.4769854703472555 0.3427989658345324 0.4333904296470879 0.5539769120122435 0.2955707483015093 0.2774502817527881 0.2247978180477349 0.2537210728725369 0.315532559573226 0.311679460170541 0.3232620892849342 0.4089694599513521 0.3164336849749731 0.2335233240061318 0.4639721563920663 0.3912361045086978 0.4351345648661748 0.1850852195509427 0.3943668407752889 0.2692190803717246 0.409679753265445 0.2726872176096126 0.2575961080737902 0.2312747160080939 0.2139566188879709 0.3219531969617608 0.251884443939587 0.4328787693109294 0.2323105443858835 0.2568588577902693 0.2274974802593039 0.2402194644937947 0.5682652372148973 0.3143784534097452 0.2645786846522556 0.2103467979083399 0.3960193006028674 0.3552153104799982 0.3060530742747377 0.2892338440185527 0.556368428662008 0.380718271393877 0.2660306751942205 0.2595828567506375 0.3586512880253184 0.2171969172383411 0.3442236862163213 0.4122498496320074 0.2312024710703223 0.3053207863040645 0.2957422183361481 0.4018829452090604 0.3710655873969265 0.2679078670743541 0.2376055347981722 0.3612464136977957 0.1858927811658164 0.3662846278357613 0.3932250822996735 0.3783767721959775 4:2 5:1 6:4 8:2 10:2 11:3 12:3 13:3 14:1 15:3 16:3 18:4 19:2 20:2 21:2 22:2 23:3 24:3 25:4 26:6 27:3 28:1 29:1 32:1 33:1 34:1 35:9 36:7 37:12 38:2 39:1 40:2 41:2 42:1 43:3 45:1 46:1 48:2 49:2 50:8 51:7 54:1 55:1 56:1 
-0 0 0 0 0 0.08299025069384235 0.3124150140329807 0 0 0 0 0 0 0 0.3888666334610181 0 0 0 0 0 0 0 0.5709231589935074 0 0 0 0 0 0 0 0 0 0 0 0 0 0 0 0 0.1175342496144243 0 0 0 0 0 0 0 0 0 0 0 0 0 0 0 0.4175633344536426 0 0 0 0 0 5:1 6:1 7:3 8:2 9:2 10:2 11:2 12:2 13:1 14:1 15:1 16:1 17:2 19:2 20:1 21:3 22:1 23:1 24:3 25:1 26:2 27:2 35:9 36:10 37:7 38:2 39:1 41:1 43:1 47:1 48:5 
-0.17939435806236 0.4276176925508456 0.4831797038449309 0.4008761400604653 0.4501988066301523 0.2268155462905633 0.1724237986725262 0.348760118101128 0.1633445962059503 0.3419263148202882 0.4295937087410321 0.6532304917241297 0.3832713785695391 0.2900844458098006 0.09764972937835005 0.4254917864966891 0.3903887035413945 0.4701811306203187 0.1877965885768907 0.3581045708483492 0.2380068538460315 0.4456761022160741 0.1610060711286395 0.2593695369522362 0.2321453949325789 0.2641886634331181 0.1984020889141553 0.3268569147473275 0.3824671881768633 0.2365022878359679 0.2357939460796883 0.1862997546202184 0.2521511579516909 0.3999717166360413 0.2824326372154666 0.09921343089105709 0.2000340508851247 0.4260906617107094 0.2913887138480099 0.2135249209959171 0.2000612126115377 0.5051701824947186 0.3445212308539475 0.1785125598871206 0.2368483942798 0.3847934841438111 0.1953050809199855 0.348981789424916 0.3714156106928624 0.2173487753924463 0.2836136068286306 0.3206333311843058 0.3113779358199172 0.3275662818521234 0.1324678604370919 0.1183562816803067 0.3972524905507267 0.1737969960307237 0.3506519698033372 0.3057128994400742 0.3495520686021202 5:2 7:4 8:2 9:2 10:2 11:1 12:1 13:1 14:1 17:1 18:5 19:1 20:1 21:3 22:1 23:3 24:1 25:4 26:5 27:5 28:1 35:3 36:10 37:5 38:2 39:2 40:1 41:1 42:2 43:1 44:2 45:2 47:3 48:7 49:6 
-0.1614989007221926 0.3669284492955273 0.3224686048553137 0.3995762741861231 0.4294842908284834 0.2262635714671844 0.2019300353152564 0.1818387555048616 0.1634585195674013 0.2349742734558257 0.2381483727209458 0.2599478466371976 0.3828151766023555 0.2465728700156204 0.1340267311056117 0.3508569013784332 0.3023334880976892 0.3264874382513281 0.1412391916709251 0.3062349653356226 0.1949589219421894 0.3109599472881865 0.158692660431304 0.1937752559278715 0.180122094885404 0.164226095089843 0.215236113515193 0.1871371929829929 0.3248473730465182 0.1799255607224929 0.2010285546313707 0.1771437808486948 0.1850955622979784 0.4075882158214241 0.2329592992658719 0.1449894170615179 0.1648373462471174 0.4102535820468305 0.2474421653760606 0.1962667970108896 0.2081545898504257 0.4263133969882068 0.2951368210223718 0.1966147852197035 0.1915135590486318 0.2776819207224296 0.1679090303538025 0.2657799014359771 0.3199054126120771 0.1782838489262608 0.2368806401019767 0.216827693612007 0.25867420583364 0.2794860863707468 0.1511119479021142 0.1607620418099999 0.2796523154105235 0.1419772746702927 0.2838617905147799 0.2279085370103471 0.2938323130519909 3:1 4:3 5:1 6:2 7:2 8:3 9:2 10:2 11:2 12:2 13:2 14:2 15:2 16:2 17:1 18:3 19:2 20:2 21:3 23:3 24:2 25:3 26:6 27:3 35:4 36:12 37:7 38:2 39:2 41:1 42:2 43:1 44:1 45:1 46:1 48:1 49:1 50:1 51:13 52:6 
-0.08130159781444289 0.2559974597453145 0.2443298562231802 0.164448635192394 0.4496245707174704 0.3925028587385634 0.3786758974096378 0.3021333213577239 0.166955196244286 0.1667552199500092 0.1977752268772641 0.1828145981730695 0.2164942454349968 0.1720513409588468 0.4372639371935332 0.2646030926394941 0.2103406097660684 0.2761185365806665 0.09493222778569478 0.2144171292587369 0.2993324308570517 0.2610567336585081 0.4186061655750267 0.130151322275615 0.1209449231072332 0.104696616810935 0.3205200814747818 0.1099312109187503 0.3111273837530026 0.149391346452877 0.1338625578486258 0.2522387638898617 0.1340224016819668 0.2853938801417018 0.2179639570948943 0.4471837035508539 0.1072314879788952 0.2006156552773056 0.363017911240844 0.6207486448706634 0.4186471304082853 0.298078822779647 0.2083127374996727 0.4362882319345708 0.1506805820801318 0.1902626069773836 0.1134880335421776 0.1827432249391625 0.2243812278742435 0.1188577578362768 0.1670255063887672 0.1684023618346737 0.3046795517970574 0.1897757979827292 0.4377104408598499 0.4287494637041434 0.196812093478664 0.09547140601575421 0.2270956906460173 0.2501827541833808 0.1979170101648783 4:3 5:2 6:4 7:1 8:3 9:1 10:1 11:1 12:1 13:1 14:1 15:1 16:2 17:3 18:2 19:1 20:1 21:3 23:3 24:2 25:3 26:4 27:4 28:2 35:6 36:14 37:8 38:1 39:2 40:1 41:1 44:2 45:1 46:1 47:1 48:2 49:5 50:4 54:1 
-0.1448587282163679 0.3935024878906607 0.1904756873813535 0.409269340564379 0.4636538974266113 0.2856984753510149 0.2780732371897168 0.1452420335019749 0.2142006406242364 0.2576573662501149 0.2541400684049935 0.2561292980356787 0.3361674085075608 0.2647453110274652 0.1980858152977262 0.3912939548508425 0.3267312311520869 0.3692534533450735 0.1534436077819117 0.3301740907609354 0.2396919629595062 0.3402938140009622 0.3074714038183602 0.2018870005928838 0.1931641551443532 0.176362571460886 0.2884243828699897 0.1969437685926524 0.3820325891409155 0.1907429785901371 0.213930857774471 0.2387911208038919 0.1979957140352535 0.6913142979569745 0.2702765340794886 0.2292860694424705 0.1748074774306412 0.3605878228441113 0.308588943108967 0.3039391618192003 0.2880539021411643 0.4661126490869493 0.3190569424095545 0.2608697174738546 0.2012797227816555 0.3003396402377744 0.1775945211449332 0.2875993426038775 0.3456206640655947 0.1934211427737871 0.2548817323383777 0.2390948013612549 0.3390929809701667 0.29926907454487 0.2637253607150268 0.2480987992726413 0.2989574301684096 0.1515606990489544 0.3048864771684514 0.2737246487224537 0.3113582925864745 4:1 5:2 6:1 7:4 8:1 9:2 10:1 11:4 12:3 13:2 14:3 15:4 16:3 17:2 18:1 19:3 20:1 21:3 23:2 24:4 25:2 26:3 27:4 30:1 35:7 36:11 37:11 38:2 39:2 40:1 41:1 43:1 44:2 45:1 46:1 49:1 50:9 51:6 52:1 
-0.27875443876371 0.7640476899933574 0.4306620064374776 0.7164884506480929 0.8692708139266688 0.5154600070556707 0.483717193282775 0.3089362535293816 0.3627713944201535 0.4937026391103732 0.5028222654391792 0.5286830849721902 0.6307101701991382 0.5121299166386362 0.3203080513526488 0.7374975636730497 0.6313787749987217 0.6812323247489358 0.2920642434511879 0.6377788445324222 0.4431562060082292 0.654325721863893 0.4277961487356691 0.3909631518957027 0.3683713265732724 0.3393315017187811 0.4768298667499412 0.3815757410437522 0.6968312300364776 0.3627210861501822 0.4149770939910525 0.4218573456953179 0.3856920051613817 0.7858620012007035 0.4966422709114502 0.3985119595661578 0.3404442154222153 0.5957974819352905 0.5555766031728526 0.4991786813625425 0.4751837823022 0.8831793335491196 0.6166471370524264 0.4360536952325381 0.3499273597612428 0.5800563659301339 0.3354081568594795 0.5554977625444474 0.6667369249921142 0.3683091343185889 0.4932307181669532 0.4473389779829486 0.5793640542687007 0.5741108810949218 0.4029443514564393 0.4271582411377303 0.5775334497016226 0.2937713270910233 0.5890980795925758 0.5054787352650068 0.5949597550154974 1:2 2:2 3:1 4:4 5:1 6:2 7:2 8:2 9:4 10:3 11:2 12:2 13:2 14:2 15:1 16:4 17:5 18:3 19:2 20:3 21:2 22:2 23:1 24:1 26:4 27:4 30:1 31:1 32:1 35:8 36:11 37:12 38:1 40:5 41:2 42:2 44:2 46:2 48:2 49:2 50:8 51:7 52:1 56:1 
-0.2905028840336025 0.7899321279070308 0.4671454670195802 0.7046387265083085 0.7896256315751193 0.8223964095614903 0.9291320993363282 0.3555772765475758 0.6152265681606377 0.543452962960038 0.5207487979845353 0.5455297374118463 0.64724439951401 0.5324565473403591 0.7564893908615088 0.8325611295786112 0.6545319192660738 0.7076903969743674 0.3026025855010521 0.6621823469390613 0.5756740297949795 0.6727790780275023 0.8091458060536161 0.4112611827369756 0.382106806940559 0.3575954161660931 0.6479720441882785 0.3872450734752206 0.8919584827823508 0.381541573741474 0.4318742212471588 0.6650826762746536 0.4008726688887094 0.7818227513671485 0.5241816667895769 0.6474505094194417 0.3530944879940955 0.6128752852966688 0.6359181317634912 0.8025360906867985 0.6385096013846958 0.955618520468428 0.640458658543126 0.6987644491726399 0.3952700499751141 0.5993391440364173 0.3586022443000357 0.5746569338826375 0.6915919465108984 0.383528173426148 0.5130976236592276 0.4676184762582847 0.8037309643667142 0.5941521247040573 0.6760103721344819 0.943742372919774 0.6009587928889392 0.3077297538353306 0.6119538355131858 0.5997795790380369 0.613930574379275 5:2 6:2 7:3 8:3 9:1 10:2 11:2 12:2 13:2 14:2 15:2 16:3 17:1 18:3 19:2 20:1 21:2 22:1 23:1 24:2 25:3 26:2 27:2 35:11 36:4 37:15 38:2 39:1 41:1 45:1 46:2 48:6 49:3 
-0.09295745179942552 0.1697212201378503 0.3150701504102239 0.2202578694666122 0.1157283731677133 0.1083318644496293 0.09733737032687471 0.1068029478443181 0.09570016598722056 0.09486789541387168 0.1038108160428848 0.1988124529681783 0.2050116159614465 0.1115959210159019 0.1105708451048731 0.1542865868829669 0.136274050005683 0.1430101413387871 0.0624619316411574 0.1368628158813312 0.07321407667655408 0.131160925887773 0.1072131781431431 0.08912600067962599 0.08115645774115143 0.08737041800933164 0.09232119063618062 0.09243842570258079 0.1313541938963935 0.08228026479782584 0.095417208997871 0.06936124323660546 0.0787718961666076 0.1811235935627781 0.09551377999177023 0.007325974222226534 0.0803207057039045 0.2347585130079162 0.07245129982745431 0.003418000460743446 0.07869115488881684 0.1904358732351846 0.1332217591636796 0.08791614641854863 0.1178050069186252 0.1256234965661968 0.09366274588237486 0.119543460399827 0.1456510539245199 0.08458916069551643 0.105756225005585 0.09421694879077784 0.07882823184916958 0.1261749041448941 0.007908702727824776 0.1083541342876004 0.122802342940255 0.06907373648589166 0.1237165318020624 0.08092759709848558 0.1297152146123987 4:2 6:4 7:1 8:2 9:2 10:2 11:2 12:2 13:1 14:1 17:3 19:3 20:2 21:3 22:1 23:2 24:1 25:3 26:4 27:1 35:4 36:11 37:5 38:1 39:1 43:1 44:1 45:1 48:1 49:2 50:9 51:5 
-0.2143370536755071 0.4137623066168081 0.3799747597496704 0.4445493265763562 0.347217096643068 1 0.9964955196910348 0.4784032219036972 0.9278233912736779 0.3121997827352351 0.2717728289312007 0.3528163701009767 0.3204609552655094 0.2570383336725353 1 0.4714683413712336 0.3215297433981813 0.4731956420201537 0.1732839479639348 0.318722741348586 0.4305374354365801 0.3385574520502065 0.9424136776535657 0.2446488774848117 0.2011503229231914 0.2095715737874906 0.9482685530119425 0.3107093330119044 0.5678170623583898 0.2524533732063423 0.2316642898550371 0.4766692288603245 0.1989453270459005 0.3770538875973126 0.2899330857463814 0.8751044709432425 0.1667693516788323 0.3439960083913762 0.4145603336957767 0.9600425547361997 0.9089490700964351 0.5017303862597497 0.3105172079544616 0.9367531742485983 0.5612067146059526 0.2955919328448405 0.3120511781724362 0.2828759986003152 0.3365743152540663 0.2152475092583128 0.2471247362026173 0.2849166412823669 0.5235442405037293 0.2912654955386295 0.9392827938603039 1 0.2940309573350761 0.2189703149335158 0.3182164564137783 0.4327713678763671 0.3081804987875867 5:1 6:1 7:3 8:2 9:2 10:2 11:2 12:2 13:1 14:1 15:1 16:1 17:2 19:2 20:1 21:3 22:1 23:1 24:3 25:1 26:2 27:2 35:9 36:10 37:7 38:2 39:1 41:1 43:1 47:1 48:5 
-0.2428588256599589 0.668263031116335 0.4661529372239964 0.6024753756335062 0.7173623022095058 0.4555159382337239 0.49281757250585 0.3192477142869684 0.3255068626115593 0.4345255936484088 0.4274805325999612 0.4935983625772575 0.5650209022868368 0.448594093232582 0.3309295046224732 0.6497706029506737 0.5526655908518083 0.6076450448070705 0.2567187235035552 0.5583181572831313 0.3642762728525391 0.5643561080295811 0.3513191337522452 0.3460053369350506 0.3262692838305823 0.2971124268413882 0.4295383562965118 0.3321815013016615 0.603219264960271 0.3199831716431996 0.3647189223297393 0.3361137340856491 0.338772956888539 0.640532922755221 0.4260096839849281 0.3139784221494726 0.2986146291508898 0.5712451053862103 0.4731036618859119 0.4878492312445765 0.4051140566897541 0.7978165666229371 0.5396730422035591 0.4111382405456525 0.3198462799890449 0.5079263691488384 0.3066074778499155 0.4860954224925836 0.5837361690896472 0.3246292122250622 0.4322002897976895 0.396704911514606 0.4960328412483245 0.5045506894356199 0.3131753257378073 0.395693097829604 0.5075279239295312 0.2599946583299281 0.517210309148044 0.4295062198102762 0.5364157412751288 3:1 4:1 5:2 6:4 7:1 8:1 9:2 10:2 11:2 12:2 13:2 14:2 15:2 16:1 17:3 18:2 19:2 20:4 21:3 22:4 23:3 24:3 25:4 26:7 27:3 35:3 36:15 37:4 38:1 39:1 40:1 42:2 43:2 45:1 46:1 47:1 48:1 49:2 50:6 51:4 52:1 56:17 
-0.2378579991943092 0.6070070350581847 0.406629071998374 0.5818852806772661 0.6674440386895363 0.4120848816072973 0.4024938761729827 0.2542046338050902 0.2948869911082988 0.3946075428321026 0.4053932050903762 0.4760786847785992 0.5051518518764335 0.4085087453953928 0.2922973194109401 0.5956665272889071 0.5027944595991659 0.6181247219913125 0.2336847362300865 0.5083526209724365 0.3314253512386364 0.5264735284354252 0.3185153129982055 0.3192447899049157 0.2942747601279223 0.2773595960204102 0.3916936609309419 0.3037943940770492 0.5490386098408842 0.2944132430942244 0.3308147914115583 0.3045923015889795 0.3069328590592433 0.5877340920105847 0.3897314778617839 0.2876165346723721 0.275233846509229 0.4856320950399751 0.4259876379578312 0.4008636942316507 0.3651482537971269 0.7062214969401119 0.4909996729552339 0.3638592447473373 0.2925353184302592 0.4609732467381238 0.2843801840808449 0.4415423401263024 0.5316016344242853 0.2960925835107975 0.3935499682205795 0.3646207078711663 0.4859011491508382 0.4712353495043561 0.2948900716005906 0.3352998357855778 0.4600662272534837 0.2421013266126765 0.470969481802776 0.3999193680084174 0.4942559309283253 4:1 5:3 6:2 7:2 8:2 9:1 10:1 11:1 12:1 13:1 14:2 15:2 16:3 17:4 18:2 19:4 20:3 21:4 22:1 23:3 24:4 25:3 26:5 27:2 35:5 36:13 37:4 38:2 39:1 40:1 41:2 43:1 44:1 45:1 46:1 47:1 48:1 49:6 50:9 56:8 
-0 0 0.4130224555915287 0 0 0 0.05700595125506854 0 0.04530007260208472 0 0 0.09345643001020956 0 0 0.2130800090080401 0 0 0 0 0 0.05462494780125803 0 0.134282139665926 0 0 0 0 0 0 0 0 0 0 0 0 0.3295954230877199 0 0 0 0 0 0 0 0 0 0 0 0 0 0 0 0 0.1870868129696339 0 0.3071867424803453 0.02779717743868554 0 0 0 0.04094981868490256 0 4:2 5:2 6:1 7:1 8:2 9:3 10:2 11:2 12:2 13:2 14:3 15:1 16:1 17:2 19:4 20:2 21:3 22:2 23:3 24:3 25:2 26:3 27:3 35:11 36:6 37:9 38:3 42:1 43:1 44:1 46:2 47:1 48:2 49:6 50:8 
-0.2947394205210288 0.8006307690876127 0.5531016366050767 0.7167616853541587 0.8025894164233895 0.5252914323575584 0.4811644676351313 0.321956019154796 0.3670063181626693 0.5269644783630797 0.5537564395172723 0.6135928448973731 0.6639498573809208 0.536383683618632 0.3280121611263159 0.7790132355393112 0.6957495567235816 0.7531147718811342 0.3052151714162201 0.6669002397862769 0.4830448526083541 0.7362339947512417 0.3732038211784164 0.4123597464831205 0.3845617508106536 0.3755050960810853 0.5014028664771181 0.4393700058205685 0.7315141240444821 0.3770975129394833 0.4329037228081666 0.3873682399260132 0.4014866049480967 0.7726020297424238 0.5045019105306271 0.3354753272384228 0.3568556663607649 0.6395841288906148 0.5453342477975948 0.4886354445144619 0.4763831301806642 0.9381877403027524 0.6452953657735951 0.4585008138590981 0.376313541555513 0.6850263122084648 0.3512412269701112 0.6441624398884113 0.697788197597739 0.385122652667397 0.5146245056170931 0.4623375066809451 0.7545299169256782 0.6150448714137484 0.3351785701320791 0.4126151025911701 0.6042236858953558 0.3075109440443179 0.6130484228443539 0.5913826478040954 0.6279298618932568 1:1 3:1 6:2 7:4 8:2 9:2 10:2 11:3 12:4 13:3 14:1 15:1 16:2 17:3 18:2 19:3 20:2 21:3 22:2 23:4 24:3 25:5 26:3 27:4 33:1 35:8 36:6 37:10 38:4 39:5 40:1 41:2 44:2 45:1 46:1 47:2 48:10 49:10 53:1 
-0.2065362046209756 0.5607581113694343 0.3460966110189668 0.5290927945539621 0.4599997242391884 0.351868122367295 0.3440085455359093 0.2533992448047584 0.2591798600429274 0.3640013320275768 0.3503340254341907 0.3693384298899565 0.4593757673409306 0.3713340785939352 0.2302863966296089 0.5357240923508259 0.4582085836695726 0.4880893423909948 0.2127599490548942 0.4625167043022801 0.3038794331913515 0.4647617122452967 0.2164700041577075 0.286379601546476 0.2690017248326768 0.2469751339585142 0.3246311226434041 0.2764504761083874 0.4966246221185225 0.2647573244992861 0.3011496356944438 0.2315687939340166 0.2810524695961792 0.5330018427844209 0.3517404500154061 0.237510699451761 0.246423594105193 0.4392931775222495 0.3409285122991954 0.301049165954566 0.295194380872596 0.6422211787704781 0.4477134413434833 0.2891264744901842 0.2644206715160023 0.4203092081823893 0.2493174331000792 0.4014248312691612 0.4831702094669366 0.2674377599135241 0.3573684899950845 0.3222399539784862 0.3387553897803322 0.4149389551704707 0.25979134402714 0.2444773175199948 0.4209475538320687 0.2135938489044525 0.4287601605397771 0.3302693978413555 0.4328520849527662 4:2 5:1 6:5 7:1 8:3 9:2 10:2 11:2 12:2 13:2 14:2 15:2 16:2 17:1 19:4 20:2 21:3 22:1 23:4 24:2 25:4 26:4 27:2 35:15 36:6 37:13 38:1 39:1 40:1 42:1 43:1 45:1 46:1 47:1 48:1 49:2 50:7 51:3 
-0.0950881087286734 0.3230699861640861 0.1628879934501538 0.2835849532933504 0.3335312792392565 0.1889194621279764 0.1063724901736492 0.0500714573888069 0.08614810734952995 0.2951501913614593 0.2228254338420097 0.2924013052566001 0.2660896221279984 0.2026997702603522 0.03232099438245765 0.3492318573744724 0.2620977939701604 0.2944860528907208 0.1095222764537966 0.2581629523993572 0.1744013311747641 0.2764625184758039 0.08225496454014911 0.1527863877905174 0.1522893935666964 0.130602679991581 0.1386205063111802 0.1612570521339182 0.4223543760411966 0.1302300596963742 0.1652264932585483 0.1747794370977737 0.1423347718522121 0.2990816401815047 0.2067050143994603 0.2858668006453932 0.1393926893097291 0.2486407334856969 0.2217264424757097 0.1077111183499859 0.1176281914551307 0.4098609107093569 0.2531276002020091 0.12539769263164 0.1098016166615339 0.2427802216361656 0.106095845239585 0.2347008901051246 0.271876523390615 0.1361331298783873 0.1986272487447154 0.2054670648140108 0.3273162571871344 0.2388757799752491 0.2463055390913998 0.04298114361992054 0.2252720819129342 0.1064165894342873 0.2424494508361936 0.3994789150970938 0.2480524255864989 5:1 6:1 7:3 8:2 9:2 10:2 11:1 12:1 13:2 14:2 15:1 16:1 17:2 18:1 19:5 20:1 21:3 22:2 24:1 25:3 26:3 27:3 28:1 29:1 35:6 36:12 37:7 38:1 40:2 41:1 42:1 43:1 45:1 46:1 48:8 49:2 55:1 56:1 
-0.1729128812783269 0.3488394415135828 0.4676577427309193 0.3329064097364504 0.3577217135996873 0.2209486908399241 0.222198399579719 0.3015191999631102 0.1830987249314161 0.2672746428334359 0.3781842389579468 0.6989678005406155 0.2972301011932611 0.2252080570464345 0.1709459984520741 0.3494222297562136 0.3543208246217933 0.5180779370873151 0.147495913299212 0.2733938143274789 0.2746728274004974 0.4430237445767755 0.2949718939711829 0.2327987339920404 0.180804723151367 0.2208360507105612 0.2704510259695261 0.3475579848703683 0.3427680481514646 0.2153575685836264 0.1871283924048309 0.1857101435778351 0.1879546218102102 0.3261099441917921 0.2482024968610453 0.3379198057874147 0.156151991396531 0.3414766954646641 0.271016709279139 0.2127914040743078 0.2305857199431398 0.3968841228980737 0.2654503995263698 0.2086517359298427 0.2556072393919692 0.2979188812148179 0.193790214757393 0.3061649774653273 0.2866299814163347 0.1819241800234539 0.2217892827499084 0.2600956462159202 0.574483636939831 0.2747428179044672 0.2750021030536043 0.1781334484696159 0.2726399907127041 0.1480056855571772 0.2767569101212736 0.6477759813275744 0.2906222771347876 2:1 5:1 6:2 7:1 8:2 9:2 10:2 11:1 12:3 13:1 14:1 15:3 16:1 17:2 18:2 19:2 20:2 21:3 22:4 23:2 24:3 25:2 26:7 27:2 28:1 29:1 31:1 32:1 33:1 35:6 36:9 37:8 38:3 39:1 40:3 41:3 42:1 43:1 44:2 45:2 46:1 47:2 48:6 49:9 
